2708 100
1358 -0.08026873 0.21125272 -0.15810704 0.43960887 0.20162013 -0.29717943 0.15654989 0.58092076 -0.59933114 0.01782694 0.1984813 -0.23639178 -0.23731777 0.6489525 -0.13337101 0.027256256 0.18749261 -0.44774842 -0.1477292 -0.5823252 0.3937908 0.4004917 0.5547859 -0.114163294 0.11688124 -0.02488798 -0.22827214 0.057254337 -0.49202558 -0.12894568 0.2507593 -0.35521564 0.26167458 -0.3228072 0.17422834 0.07543082 -0.09024736 -0.37244433 0.13400093 -0.49354556 -0.03059222 -0.09265714 -0.20494922 0.58695304 0.11181186 -0.16692097 -0.45839724 0.08161235 0.21013784 -0.24072482 -0.03668515 0.2858066 -0.089022726 0.11297778 0.3883472 0.28431058 0.22886142 -0.13876586 -0.123427264 -0.030763289 0.251424 -0.2536135 -0.5882473 -0.064542495 -0.53180504 -0.28036764 -0.23852614 0.42605373 -0.5437833 0.17843814 0.6517095 0.4779477 0.1681892 -0.24416898 0.7857697 0.26219392 0.11047225 -0.051017016 -0.5259424 -0.42701265 -0.4146015 -0.08024109 0.0044491533 0.61247504 0.048938215 0.5439229 0.094353855 -0.028892891 -0.15191972 0.26721504 -0.012416024 0.05778764 -0.29333124 0.17173772 0.8272906 0.53310883 -0.6464457 -0.30451474 -0.27911973 0.16119044
1701 -0.56595814 0.20987478 0.44373897 -0.051496167 0.990991 -0.08717055 0.15603295 0.668362 -0.5473891 -0.6286151 -0.48987016 -0.21590304 -0.20833194 0.4586556 -0.21300273 0.20170335 0.24527122 0.5107668 -0.36720523 -0.90618414 0.2465694 -0.02745213 0.73831356 -0.095885046 -0.2640873 0.3439693 0.03109449 -0.08887785 -0.54654723 0.08272735 0.120829776 -0.07068345 0.22375505 -0.52287954 0.3752944 0.0052335057 0.513464 0.03989429 0.25540417 -0.6391037 0.7711293 -0.5235204 -0.17388651 0.17471942 -0.059477866 0.50453055 -0.13750878 -0.5680193 -0.14657249 -0.20534389 0.41566727 -0.75915396 -0.090920396 0.042122148 -0.379671 0.3038313 0.5372709 0.15368465 -0.4150147 0.10273949 -0.16681227 0.28153807 0.12238867 0.16850711 0.13962647 0.5491972 0.0064196694 -0.26529533 -0.48427024 0.19030012 -0.21222115 -0.107886925 0.7699401 0.51817685 0.11366166 -0.11281101 -0.0055753067 -0.16083305 -0.054030195 0.4618733 -0.35946423 -0.05308722 0.25287002 0.28802255 0.110067375 -0.12212879 0.468151 -0.025204936 0.5061005 0.43655318 -0.22742333 0.0761256 0.003980232 -0.5312246 0.74974966 0.120352775 0.3454342 -0.47890347 -0.28696415 0.40044096
306 -0.23901992 -0.08468664 -0.3446169 -0.3595252 0.4122432 0.11999102 -0.28103307 0.3612001 -0.7590528 -0.19932489 -0.19011635 -0.3522444 0.5496288 0.11194823 0.23954326 -0.008922398 0.27633023 0.22023343 -0.4311124 -0.4979768 0.16453719 0.37774727 0.09295935 -0.0053948066 0.06055956 0.31450048 0.08506256 0.032011274 -0.8059664 0.47952357 0.4099669 -0.43219435 -0.2949898 -0.23551103 -0.9395927 0.07613166 -0.20409404 -0.513516 -0.074142545 -0.26488537 0.3823304 -0.44405568 -0.44536674 0.83171314 0.38570428 0.26598233 -0.13645616 -0.5567605 -0.1323005 -0.3992508 -0.04090179 -0.5541453 -0.15791215 0.03859865 -0.96518666 0.25388357 -0.045269214 -0.4306034 -0.28518283 -0.25317317 0.78571516 0.22607677 -0.07836156 -0.041239183 -0.46186432 0.18726481 0.270076 0.40917605 -0.6413109 0.34637418 0.29517817 -0.0008262459 0.8153725 0.20461595 0.15442218 0.4286376 0.35931173 -0.11735478 -0.6051601 0.13913475 -0.014380668 0.30732524 -0.5819682 0.5549219 -0.29904968 -0.21023127 0.024266113 0.03499692 0.6626772 -0.22917563 -0.12487235 0.4030048 0.5965406 -0.2607403 0.45213684 0.1489959 0.1333813 -0.5181235 0.21711709 0.116031684
1986 -0.8013929 0.3583349 0.5553008 0.23453814 0.3222168 -0.19713198 -0.0028204112 0.35619864 -0.39829305 -0.19266082 0.041965656 0.05688447 0.24117988 0.07131604 0.3788978 -0.31952238 0.23036739 -0.1401926 -0.647658 -0.19984256 0.36563098 0.3669334 0.46835086 0.61647815 -0.5677927 0.2374034 0.2951506 -0.28819028 -0.4683096 -0.08827767 -0.20650701 -0.05364016 -0.6196497 -0.13460632 0.21252392 -0.081186965 0.6475462 -0.4080634 -0.04439444 -0.45881408 0.16149399 -0.26134157 -0.03698928 0.06386692 0.25072476 0.24489091 -0.011679318 0.020079803 -0.09890839 0.5130687 0.056653462 -0.41042042 -0.4539661 -0.1862812 -0.7015128 0.2863426 0.64843595 0.22020754 0.20323649 -0.03948284 0.21115305 0.15187931 -0.22754012 0.45816797 0.15487374 0.15430929 -0.37953413 -0.33492267 -0.8031549 0.1677914 0.4590307 0.06578295 0.4808638 0.08062651 0.05523111 -0.06440929 -0.40595263 0.05727745 -0.2578558 0.12737319 -0.12956531 0.16164264 -0.28852937 0.38600537 -0.33405098 -0.30254716 0.7201856 0.30235323 -0.6588701 0.26081643 -0.5365274 0.5012432 0.08535365 -0.41391522 0.51440346 -0.10849359 -0.3128789 -1.0177144 -0.26583454 0.41387224
1810 -0.42616054 0.56831354 -0.04068721 0.31028944 0.35325792 0.16613668 0.2113011 0.42916092 -0.2339433 -0.22919726 -0.44623724 -0.22576109 -0.30931872 0.081434175 -0.10814451 -0.581548 0.1532481 -0.037707407 -0.0211213 -0.20870154 -0.122654654 -0.430887 0.9583308 0.13134663 -0.31497836 -0.30071586 -0.20910509 0.122807585 -0.527551 0.1585316 0.28410238 -0.25827697 -0.20274459 -0.13063979 0.36557943 0.21533328 0.11950212 -0.42416835 -0.36993992 -0.26637855 0.38710892 -0.38845992 -0.14389943 0.38227707 -0.024551975 -0.45381272 -0.03627875 -0.6741282 -0.07211719 -0.1723377 0.5163899 -0.29229897 -0.020188538 -0.4487722 -0.7238016 0.29629418 0.23298159 -0.20459299 -0.35814914 -0.313427 0.56754047 -0.25544426 0.03682227 0.57114077 -0.6593091 0.55398494 0.28291857 -0.32283866 -0.6613912 0.29346618 -0.31908968 0.10457268 1.2032038 -0.08840761 0.6279013 0.20299807 0.3145518 0.4828872 -0.35843915 0.19410358 -0.39693174 -0.11685254 -0.27457577 0.05992671 -0.7827054 -0.21109624 0.34906217 0.81538546 -0.32777777 0.38435462 0.3618828 -0.40474504 -0.1964982 0.101241656 0.16791952 -0.6780395 0.5610074 -0.35505384 0.040679596 0.655405
2034 -1.1039362 0.15970623 -0.018827481 -0.71882856 -0.15727803 0.1934357 0.57562816 0.024312338 -1.0468318 -0.001788974 -0.24169861 -0.54694027 -0.077060826 -0.47903052 0.15004645 -0.31902024 -0.24110475 -0.39257059 -0.39507538 -0.35360336 0.18121912 -0.04123815 0.18770792 -0.015392381 -0.66084677 -0.39076567 0.14083856 -0.37558287 -0.40113214 -0.19603735 0.31715038 0.32100055 -0.42112848 -0.3819717 0.6034296 0.15054284 0.14795578 0.06815719 -0.01845491 -0.5162235 0.72641516 -0.22642396 -0.36818922 0.6355904 -0.099925436 -0.2918314 0.17009322 0.30058953 0.09637864 -0.107442945 0.41471 -0.6099086 0.44252312 0.17254502 -0.4800742 0.22297795 0.14904927 0.15937492 -0.66337824 -0.49041703 0.16364561 0.07954591 0.5551346 0.15679458 -0.1568755 0.27877048 0.18536803 -0.033378646 -0.5642946 0.046849545 0.23409966 0.12625256 0.74932706 0.44017932 0.3138335 0.13677688 0.077503145 -0.10769023 -0.5588309 0.25746834 0.21163023 -0.633385 0.13422418 -0.2942165 -0.26913753 -0.3476713 0.7175412 0.8656872 -0.02804775 0.5273187 0.042999256 0.35583296 -0.07540024 0.23475252 0.77001435 0.33376345 0.18242638 -0.49184382 0.38445988 -0.17411812
598 -0.03202697 0.20435797 0.3150984 -0.2354661 0.80463487 -0.12352197 0.6677637 0.88772845 -0.6332199 -0.5248216 0.7393394 -0.35443428 0.026856253 0.3365053 -0.4670922 -0.40802598 0.56860316 0.36350062 -0.04290898 -0.9341414 0.5986735 -0.2951753 0.6924313 0.19386247 0.08924684 0.3684141 0.05525021 0.10193476 -0.19753662 -0.2574332 0.5523505 0.50186276 -0.41107172 -0.25084957 0.09794225 0.20297174 -0.010744412 -0.57600135 0.08817253 -0.74894977 0.41848373 -0.22302786 0.13231958 0.04451345 0.3536988 0.19786155 -0.23115079 -0.2320994 -0.42705524 -0.015684439 0.23903409 -0.47956783 -0.7550004 -0.42300946 -0.4064563 -0.46587133 0.70456964 -0.20905858 -0.4025908 -0.23230991 -0.16384871 -0.2566928 0.30805564 0.16554515 -0.470476 0.17028108 -0.2316366 -0.5167691 0.006924386 -0.064288564 -0.090540506 0.25253198 0.63909936 0.4315819 0.40732118 -0.41943973 -0.12566535 -0.0764153 -0.8213668 0.5184737 -0.3058778 0.09666031 -0.4035912 0.25891748 -0.49336064 -0.3772687 0.34579033 0.21139452 -0.3632406 0.21946697 -0.10967386 -0.33110046 0.580639 0.24792962 0.81844455 -0.08192906 0.26197374 -0.6288417 0.0637442 0.8450968
1623 -0.4135759 -0.023667663 -0.30215752 0.19586648 0.22511345 0.042307243 -0.40231362 0.7428616 -0.2672047 -0.3514166 0.09645194 -0.256945 0.9492678 0.16913643 0.08868639 -0.47525638 -0.028387276 -0.19505575 -0.7081001 -0.44868523 0.2765167 0.5391345 -0.28903803 -0.05037428 -0.27402216 0.5464501 0.028787225 0.49448687 -0.5874847 0.1444379 0.30536497 -0.30420673 -0.40124106 -0.5917989 -0.30096844 0.17960338 0.47967666 -0.12208854 -0.8494725 0.03456954 0.37879208 -0.08506419 -0.32437688 0.502381 0.57399637 -0.20950758 0.10611417 -0.26961806 0.5569728 -0.6304968 -0.121652156 -0.43868417 0.42142665 -0.33932728 -0.9302714 0.36164203 -0.19954424 -0.0070253024 -0.16772263 0.40069014 1.1600099 -0.01087922 -0.22897519 0.43921998 -0.6547353 0.48087344 -0.72127646 0.5687768 -0.93770397 0.13054228 0.24431121 0.3869606 0.29478973 -0.35679236 0.0822075 0.5153094 0.16114832 -0.6915266 0.23317651 -0.7590253 -0.48986778 -0.23215774 -1.0714875 0.19970445 -0.23187743 -0.38396904 0.7156802 0.7349734 0.891143 0.032410175 0.19519253 0.012069457 -0.2670655 0.110280976 0.24624667 0.31309667 0.074024364 -0.5938756 0.5837159 0.08126419
88 -0.4885633 0.2911667 -0.1288682 0.3046698 0.22501734 -0.17107317 0.3618475 0.108053654 -0.21555278 0.06918982 0.15026642 -0.30597153 0.4724245 0.27534103 0.40344384 -0.39523974 -0.62900037 -0.6111513 -0.5235814 -0.7800106 0.07525099 0.5400782 0.16734798 0.027845006 -0.45101953 -0.25821102 0.13458617 -0.49107587 -0.6291592 -0.79233277 0.12932436 -0.77234864 0.55099535 0.09280623 0.13217384 0.6353819 -0.069926165 -0.17197593 -0.3661985 -0.48224506 0.04327315 0.28922823 -0.2980806 0.07521877 -0.21079023 -0.51016885 0.13273259 0.33870944 -0.26057282 0.20121619 0.22705719 0.034508325 -0.57437027 0.14894389 -0.15369576 0.0906425 0.4371091 0.081871785 -0.16896105 -0.6087264 -0.5878872 -0.0178357 0.64623713 -0.091487594 -0.9227456 0.33452708 -0.052685924 0.23877442 -0.8131544 0.17711873 0.19086228 -0.11480046 0.32042423 -0.3054023 -0.0067218705 -0.006369965 0.12395958 -0.34815845 -1.1562778 0.014011457 -0.4029388 0.58067465 0.1767414 0.70373505 -0.106080644 -0.19966394 0.15589604 0.6330089 -0.42072594 0.703396 0.28658205 0.46045217 0.01441348 0.08184032 0.5766842 0.25246125 0.27442843 -0.17563884 0.056434616 -0.47942996
1914 -0.6110422 -0.12592612 -0.28234124 0.059620626 -0.06404504 -0.55963326 -0.11730739 0.3700781 -0.64178413 -1.0677423 0.1272161 -0.39806575 -0.028556567 0.2961764 -0.15082064 -0.28269944 -0.18681513 -0.8244406 0.15165609 -1.1226231 -0.34020528 0.82942337 -0.38465914 -0.072588354 -0.0054317317 -0.022518385 -0.24319291 0.4533171 -0.36480102 -0.16402283 0.61363095 0.059063368 0.28779095 0.037398558 -0.16762747 0.20153564 0.47783732 0.11305375 -0.45617488 -0.4855075 0.7374643 0.085623264 -0.27121747 0.45136485 0.09135985 -0.1091335 -0.13452072 0.45409888 -0.050731722 0.3741852 -0.065690964 0.2477139 -0.20968981 0.7002757 -0.44550532 -0.28296626 0.39325628 0.2580199 -0.19163822 -0.20227566 0.038327906 0.79167324 0.40974385 0.15402822 -0.22984709 -0.24448685 -0.41218212 -0.20180224 -0.3159063 -0.36368895 -0.047825538 0.47056395 0.15406536 -0.27362183 0.78357315 -0.06595505 0.39129394 -0.61037594 0.21081503 0.12926447 0.0006389351 -0.20378464 -0.538507 1.1320112 -0.015022744 -0.60055035 -0.8898083 0.61297786 0.39860713 0.47678372 -0.013205353 1.1141243 0.477341 0.042070895 0.6194676 -0.06433601 0.109064415 -0.11546068 0.5138895 0.41369396
1013 -0.60978144 0.2944013 0.0023169126 0.035891198 0.5778051 -0.47666073 -0.53101456 0.32792565 -0.33704147 -0.33673066 -0.25459537 -0.5028362 0.89868516 0.42705277 0.022134367 -0.20560561 -0.38367847 -0.28612947 0.20993559 -1.3610414 -0.17022198 0.22379887 -0.008971387 -0.7942849 -0.26904717 0.22138757 0.20029537 0.3909373 -0.11500925 0.33559442 -0.090032764 -0.63883567 0.3797615 0.07464761 0.07415961 0.38586384 0.8581538 0.17821497 0.052603833 -0.71667874 -0.03012538 0.27140516 -0.3368276 0.28733075 0.18254101 -0.3918667 -0.20672037 0.03629074 -0.067483 -0.07687596 -0.1402616 -0.24418615 -0.07571955 0.18843801 -0.2678732 -0.2451211 -0.011346638 -0.43452367 -0.18455628 -0.031244937 -0.09422941 0.7891889 0.14463878 -0.08423863 -0.1866959 0.31821293 -0.40933192 -0.3460092 0.14891644 -0.4765222 0.75721246 0.41213503 0.2020466 0.2802677 0.43894988 0.2601603 0.11483092 -0.65910196 -0.44695368 0.46954688 -0.073975995 0.8250144 -0.21680583 0.9347746 -0.8245737 0.09208771 0.03982787 0.3822624 0.27105555 0.95027286 0.062065866 0.20494455 -0.19044282 0.47051558 -0.16587514 0.37155142 0.14916459 -0.0036955166 -0.064026445 0.0008294088
1441 0.23529528 0.574058 -0.41718683 0.23628156 0.28755882 -0.62468624 -0.12553154 0.9201032 -0.26182556 -0.31224906 0.43584362 -0.34139624 -0.1669911 0.07662406 0.9011847 -0.64629 -0.31248695 -0.663347 -0.43910006 -0.8801693 -0.19301061 -0.00053664227 -0.067116275 -0.103608504 -0.8815077 -0.69532114 -0.25722387 0.7328004 0.29006726 0.36224908 0.3112415 -0.6619149 -0.020278681 0.09612009 -0.09539081 0.69135565 -0.03430439 -0.34102422 -1.1372622 -0.8986553 0.13386302 -0.1534836 -0.4673944 0.17039928 -0.18597893 -0.40253264 0.26234242 -0.073372416 0.26539794 0.61251163 -0.20660815 -0.49339333 -0.15191796 0.4970877 -0.88788426 -0.18296522 0.034722146 0.3186527 0.0019776905 -0.230951 -0.33902028 0.33051133 0.06570339 -0.1554707 -0.25301534 0.41678163 0.03631703 0.66185373 -0.5467508 -0.065278895 -0.42231217 0.81519413 0.22052982 -0.059414197 0.43097058 1.0172199 -0.5008541 -0.22096671 -0.29913887 -0.17004807 -0.18663351 0.8298167 -0.5290602 0.66865474 0.40501562 -0.18502124 -0.6982081 -0.23487347 0.9622778 0.41376528 0.55137724 0.22175044 -0.26867497 -0.41194758 0.8812149 -0.28305176 -0.023090117 -0.52652603 0.03849618 0.12011811
733 -0.52807873 0.06779394 0.41768152 -0.025184816 0.11821547 0.08468463 0.059104174 0.5460866 0.06845176 -0.2673669 -0.3475455 -0.3865582 -0.35228905 -0.15368015 -0.03699256 -0.32996407 -0.189847 -0.20179902 0.11020456 -0.39621928 -0.39343822 0.05185756 0.23093581 0.53909796 -0.53905916 -0.20537701 -0.37381986 -0.40484518 -0.6693892 0.033541553 -0.45927075 0.071646504 -0.6172562 -0.35704783 -0.04629376 -0.10473679 0.1308373 -0.760476 0.18072249 -0.8508379 0.21639659 0.29503527 -0.3963351 0.15337332 -0.32422036 -0.30571434 0.6103199 -0.07080656 0.017195435 0.13408697 0.94844157 -0.19769296 -0.35238317 -0.26019645 -0.7501641 -0.033187296 0.3539131 0.30478755 0.14950797 0.6124958 -0.3450332 -0.04117804 0.2379958 0.4259143 -0.3179732 0.50436604 0.38887987 0.32237092 -0.7918377 0.5352032 0.12550198 0.36165535 0.8055461 -0.22183467 0.34586552 -0.1202442 -0.18882778 -0.35472578 -1.1924778 0.119999394 -0.7325091 0.12883161 0.051668845 0.9306401 -0.22212851 0.07520907 0.5936626 0.60099226 -0.21348785 0.7488789 0.5148161 0.04223773 0.12556016 -0.39830127 -0.15114021 0.0438039 0.8555424 -0.24846427 -0.016408117 0.08762887
1072 -0.76621526 -0.22317399 -0.37375686 0.17546363 0.3541531 -0.16741711 -0.08385327 0.14320512 -0.43120003 -0.004772784 -0.113955446 -0.2616641 0.18827914 0.10737561 0.8355057 -0.39939952 -0.12682208 0.27149233 -0.3765685 -0.59093934 0.2673784 0.37946123 0.26074034 0.2988977 -0.05139324 0.27744845 0.31780952 -0.17063577 -0.7953319 0.5994033 0.22695144 -0.4974277 0.18769419 -0.30370295 -0.41914713 -0.16492577 -0.631459 0.15639775 -0.1654436 -0.41971657 0.39251068 -0.62204576 0.05527654 0.41064167 0.3634852 -0.10008647 0.05600545 -0.36294392 0.5075451 -0.31908998 0.0950648 -0.106281586 0.18195681 0.24404387 -0.028299702 0.28529304 0.5831261 0.065004036 0.24590188 -0.14369993 0.50440645 0.12061915 0.10213118 -0.12897186 -0.2857551 -0.2993661 0.3716485 1.0011219 -0.45207155 0.57860166 0.25637704 0.45120862 -0.09904369 0.24004021 0.6545693 0.5910324 0.11798023 -0.6942362 -0.8249434 -0.19512098 0.45203325 -0.25809872 0.3004727 0.7329769 -0.09706169 0.1739652 0.14969873 -0.10112027 0.668665 0.27919912 -0.022979707 0.5687642 -0.10141557 -0.30768776 0.50238866 0.65109396 0.118481375 -0.85301375 -0.16102083 0.741497
1542 -0.16863216 0.08083533 -0.26373497 -0.605177 0.16174757 -0.43223774 1.0407821 0.9791418 -0.015925122 -0.7322857 -0.01061284 -0.9183331 -0.34452274 0.12517536 -0.19658227 -0.10106863 0.34773615 -0.1564245 -0.20243943 -0.9917025 0.6532182 0.24112973 0.27597085 0.046876308 -0.43365884 0.57984245 -0.22767492 -0.47329232 0.25085825 -0.03313557 -0.32565084 -0.1561186 -0.13303748 -0.81865805 0.18509784 -0.2766599 0.4320977 0.16866502 -0.07700911 -0.48102793 0.5601394 -0.31937194 0.3638554 0.63617766 0.5176557 0.21125989 -0.67727244 -0.22986093 -0.40872514 0.26493782 0.48434547 -0.4507924 -0.27182645 -0.3029741 -0.28770116 -0.32226515 1.246836 -0.1517436 -0.008703823 0.37067145 -0.28789872 -0.24159485 0.036796086 0.5221161 -0.043405604 1.0935175 -0.3404254 -0.35999006 -0.68221915 0.1547072 -0.7442059 -0.13252047 1.2399366 -0.3126753 0.09704318 -0.26393476 0.4956942 -0.38162014 -0.7553569 0.25016534 -0.556763 0.5408137 -0.032524765 0.16201103 0.13143185 -0.2644062 0.32560766 0.24475165 0.21557353 -0.32919306 0.3429868 -0.21519639 0.28048962 0.25641203 0.8220377 -0.13452652 0.64888215 0.063073225 -0.5187512 0.45985755
2045 -0.89231336 0.16998343 0.5695888 0.20035177 0.43481648 0.0069035464 -0.23718661 0.19805036 -0.67743176 -0.43300298 0.011411585 -0.7241266 0.31538785 0.20840476 -0.47069028 -0.39162058 -0.2666395 0.4691872 -0.36370033 -0.89457566 0.07617322 0.26562408 0.22530638 -0.006947176 -0.19150533 0.80769694 0.047551196 0.22491841 -0.29984525 0.078100264 -0.1701574 -0.3740389 0.23942003 -0.041703712 0.043713093 0.3574192 0.46473587 -0.12337814 -0.3593361 -0.537421 0.302279 -0.35440084 -0.61153865 0.38927904 0.8709332 0.20763803 -0.32502425 -0.3603743 0.22744398 -0.038330182 -0.3790475 -0.72851795 0.12671775 0.21305323 -1.2578264 0.10160838 0.18296067 -0.74019223 0.036124773 -0.09113152 0.5609626 0.03931595 0.23636039 0.20660469 -0.4072494 -0.07171925 -0.067588165 0.09828799 0.28736365 0.38780442 0.47413447 0.121345535 1.1516773 0.08885392 0.22370216 0.44794917 0.7696076 -0.6638724 -0.44949397 -0.0818882 -0.3794599 -0.124358974 -0.49171862 -0.26107153 -0.74945116 0.15740848 0.30834767 -0.13389683 0.20547135 0.51156193 -0.67565364 -0.19169061 0.15128122 -0.009996145 0.31781912 0.46346813 -0.071617305 -0.08854124 0.020562978 0.117763236
109 -0.49950176 -0.13489929 0.01739624 0.6366763 0.19867364 0.009976239 -0.018623238 0.92687684 -0.39932975 -0.085545704 0.18382506 -0.51713103 -0.18613778 0.5336576 -0.42224985 0.1563954 0.10245371 0.10770949 -0.14799258 -0.3572501 0.057036664 0.37877917 0.26109713 -0.13919994 -0.27758253 0.76471514 0.30250514 -0.041715197 -1.1848428 -0.059228376 0.3633557 -0.53528595 0.3259645 -0.9414702 -0.1601382 0.4158746 -0.23838498 -0.5232522 -1.0255703 -0.4361125 0.2663744 -0.102751695 -0.29460192 0.37462363 0.466034 0.17338881 -0.28293046 -0.34640485 0.45991984 -0.21443719 0.13343987 -0.43214086 0.19709358 -0.006578369 -1.0128309 0.34788254 0.26121193 -0.15146285 -0.30017596 -0.032708902 0.51888293 0.3856559 0.09624591 -0.1237178 0.18543339 0.62990606 -0.90311486 -0.05556844 -0.103320956 0.24694526 0.35664263 0.48127347 0.5966403 0.2201833 0.27444196 0.27574518 0.6827316 -0.21180716 -0.4616258 -0.07550436 -0.31072688 -0.08790309 -0.26338783 -0.0048714816 0.096124075 -0.15561865 0.035653934 0.13654913 0.43784705 0.17386621 0.10664436 0.75131744 0.51769227 -0.16864303 -0.6617377 -0.0289463 -0.29100287 -0.5770888 -0.31303415 0.012892599
1224 -0.28433555 -0.0014970916 -0.28770223 -0.06281048 0.5725298 -0.77654326 0.085551485 0.37505555 -0.17935316 -0.53023565 -0.023849273 0.16359659 0.5382916 -0.057150114 0.007967785 -0.077154405 -0.18084499 -0.70954776 0.076771125 -1.1510782 -0.20222205 0.55328596 -0.2345953 -0.4321154 -0.3637293 -0.12567988 -0.16546965 -0.14941491 -0.6030057 -0.14575829 -0.5189102 -0.10687762 0.3485722 -0.11342384 0.2001712 0.7076339 -0.48610607 -0.03498274 -0.32403398 -0.63778394 0.46164688 -0.3921824 0.06595247 0.3079404 0.01792606 -0.36094058 -0.2630144 0.1076816 -0.02695546 0.60074973 -0.08340352 0.15434732 0.3176329 0.015081195 -0.032545768 0.27967212 0.49620843 -0.032941215 -0.0044955816 -0.08878593 -0.10214158 0.58774483 -0.18498586 0.8613601 -0.336362 0.44334567 -0.15865189 0.018480059 -0.7958561 -0.15928012 1.020049 -0.15635853 -0.0099952975 -0.24056485 0.22403508 0.24280936 0.05461962 0.046502624 -0.14467147 0.09510213 -0.123933494 0.083875865 -0.29605412 1.018591 0.46704522 -0.21354115 -0.10152233 0.8175437 0.16830236 0.74009544 0.16870666 0.63777906 0.87848693 -0.15312804 0.52560973 0.17525671 -0.46247438 0.15612124 0.1246254 0.0692403
1042 -0.5427282 -0.31250244 -0.7819789 -0.28734586 0.14663588 -0.5171004 -0.114157304 0.62234545 -0.15809259 -0.40220863 -0.43947843 -0.5258455 0.28024 0.6294601 0.40423673 -0.14874713 -0.67049736 -0.7314815 0.4252711 -0.029629245 0.18278529 -0.561892 -0.22184734 -0.27618754 0.19398445 0.1874059 -1.1652137 0.7136449 -0.079306535 -0.29320115 0.8997238 -0.20342427 -0.3208111 -0.80652326 0.22694261 0.31682026 0.5419725 0.42340448 0.018215481 -0.74675184 -0.015473399 -0.2372967 -0.12580651 -0.18638061 0.50387937 -0.49966553 -0.67152566 -0.015044171 0.04466543 0.07616756 0.57254434 -0.12624894 -0.26444602 0.5239185 -0.4954823 0.2692462 -0.09845748 0.09011284 0.09985482 0.40846282 -0.18892638 0.3933889 0.3961783 0.27169544 -0.057839584 0.44205242 -0.6323781 0.5089497 -0.5755095 0.24845 0.32966483 -0.029097022 0.5987915 -0.2542628 1.00401 -0.27553305 -0.6470282 -0.06739203 -0.5675486 -0.5369104 -0.80735034 -0.22784588 -0.49261385 0.6929699 0.29491642 -0.07693328 0.00300491 0.80851394 0.21092138 -0.28095338 0.47481224 0.25661996 0.63457996 -0.17107789 0.16983819 0.5818791 0.42730507 -0.23660849 -0.18667838 -0.1722119
1169 -0.19732918 0.05104158 0.13678764 0.36844224 -0.13960683 -0.13949431 0.26832235 0.42014703 -0.21684046 0.09807755 0.115802385 0.20897414 -0.270217 0.27663994 0.23584652 -0.13299686 0.31454948 -0.5576283 0.20928968 -0.8425141 0.22358969 0.009312978 0.3424569 -0.44624835 0.09327371 -0.1002402 -0.21650894 0.18578559 -0.23965211 0.21687467 0.05988301 -0.45592728 0.98909396 -0.4989054 -0.26303446 0.36271188 0.17881937 -0.24441032 -0.41799173 -0.66151965 -0.042411286 -0.021209808 -0.07222945 0.40591177 -0.32950664 -0.51293325 -0.6531312 0.030625934 0.36757421 -0.11055548 -0.5849827 -0.11963171 -0.6896021 0.07712401 0.031139571 0.20789388 0.69054556 -0.047312867 0.39281952 0.15280928 0.6715506 -0.009494465 -1.1160583 -0.027399883 -0.6824675 0.3626328 -0.56490415 0.5728041 -0.7714852 0.31809798 -0.38353193 0.72095054 0.9609805 -0.9762563 0.8329274 0.33304593 0.12807329 0.26574647 -0.62085533 -0.24535047 0.01495586 -0.24573222 0.31622022 0.7790878 0.2543567 0.58994955 0.27402875 0.27864203 0.4134198 0.11958927 0.49380708 0.05676285 -0.1837798 0.33032757 0.06885493 0.26530075 -0.46428996 -0.07040648 0.14016388 0.72649777
415 -0.8474737 0.4427373 0.242764 0.4254796 0.38366926 -0.26679686 -0.041149665 0.24864426 0.09041543 -0.20880371 0.098965876 -0.5550668 0.4959765 0.28338438 0.8871348 -0.36949164 -0.89485836 -0.22723214 -0.35812944 -0.4550293 -0.035982206 0.31248033 -0.40785423 -0.11040663 -0.19941714 0.4289731 -0.36605138 0.31018382 -0.3172752 -0.6679833 0.30587977 -0.7970556 0.058929052 -0.024459757 0.2839039 0.8570832 0.23356336 0.5436561 -0.2490374 -0.49777383 -0.36694422 -0.21179399 -0.5313302 0.22068627 -0.18518366 -0.43399554 -0.68974996 -0.04635363 -0.12518212 0.5525237 0.072022244 -0.347848 -0.995344 -0.0466299 -0.16175197 -0.13561252 0.0064829737 -0.37746772 -0.11206832 -0.28628662 -0.80623764 -0.12153951 0.5446582 0.04343177 -1.0646194 0.22095 -0.63873047 -0.27270374 -0.42812735 0.19598924 0.02463136 0.10394241 -0.20352203 -0.24710341 0.53991807 0.19972807 -0.077002585 0.009567053 -0.8266705 0.34444836 -0.17539895 0.4091372 -0.14125629 0.25337815 -0.40898347 0.36980528 0.29160133 0.5409761 0.058807585 1.0176475 0.1264372 -0.009547589 -0.077737115 -0.13855566 0.40721178 0.3969551 0.16381603 -0.23567306 -0.023591468 -0.29397866
95 -0.77838427 0.19662568 -0.01662966 0.0066631963 -0.19315165 -0.042752437 -0.6292236 0.50539774 -0.3370852 0.056324407 -0.0035054472 -0.18143839 0.17860374 0.13333872 0.38439098 -0.28641215 -0.34890577 -0.9302947 0.26906833 -0.49373585 0.026071507 -0.39007312 -0.45874494 -0.11149141 0.36490893 0.3302548 -0.5603484 0.6100999 0.19597909 -0.6240824 0.44481894 -0.39469427 -0.11940406 -0.21918786 0.14447644 0.62383705 0.81616986 -0.5570133 -0.7709361 -0.956593 0.2307782 -0.5295441 -0.10337353 -0.49602032 0.2832483 -1.1150485 -1.008969 0.11477392 -0.57277465 -0.067483455 0.3222711 -0.080218114 -0.13491641 0.66563535 -0.5439265 0.07970944 -0.21637762 -0.331394 -0.4986746 -0.23856941 -0.040344253 0.42990136 -0.35702315 0.086875565 0.011703493 -0.07716714 -0.53903496 0.4783373 -0.41795424 0.4179588 0.38412717 0.7799637 0.25491884 -0.24153706 0.9310419 -0.49294147 -0.22623071 -0.031662572 -0.26763552 0.38836414 -0.3349737 -0.032662068 0.05328686 0.44570485 0.0063940166 0.36281523 0.4725474 0.93257517 0.7993747 0.52396506 0.43261072 0.25622165 0.14160414 -0.2512235 0.031822566 0.07088183 0.047784597 -0.2568731 0.18949932 0.14797504
2182 -0.841667 0.57790315 -0.2933809 0.2404493 0.32554713 -0.49191722 -0.13625894 0.4726531 -0.1062004 -0.52071255 -0.24603358 -0.38778 0.36403432 0.2484436 0.89855844 0.14726001 -0.5295493 -0.22567455 0.04972566 0.031190645 -0.07606864 0.45622268 -0.64836216 0.30576023 0.2298179 0.6382662 -1.0202732 0.5150912 -0.14101589 -0.6242317 0.324651 -0.29756182 -0.38648784 0.082096696 -0.07328405 0.75036293 0.36350957 -0.26017582 -0.5864912 -0.36438364 0.42546836 -0.14580634 -0.2522217 -0.4332762 -0.26259974 -0.68508303 -0.42152947 0.0869695 -0.29006764 -0.08184748 0.44754222 -0.31786016 -0.53845346 0.41116872 -0.7014432 0.035205252 -0.2998267 -0.25432256 0.0021351897 -0.19330783 -0.33525467 0.07454463 -0.15283488 0.13053279 -0.88971525 0.28827384 -0.36639813 0.5259894 -0.8917252 0.7375348 0.37592456 0.23901221 0.22018956 -0.57770145 0.5920008 -0.08269786 -0.387416 -0.03755544 -0.51258713 0.60131407 -0.65901804 0.28434142 -0.22069769 0.3844148 -0.44841167 0.23301683 0.5390214 0.9630415 0.6492934 0.3869847 0.27805018 0.07110772 -0.20798787 0.04393177 0.27070516 0.12871827 0.1393319 -0.012850613 0.12717742 0.05987614
1692 -0.290326 -0.5077371 -0.1792387 -0.2734914 -0.35596904 -0.13600203 -0.31846315 0.7711273 -0.2898601 0.09919786 -0.53665024 -0.22294605 -0.25952467 0.6164384 0.611544 -0.19140194 0.12059156 -0.8402233 0.30345306 -0.62686515 0.116346166 0.06741194 0.20335536 -0.14501269 -0.656276 0.029149853 -0.5970053 0.19449866 -0.73803645 -0.3216957 0.20327811 -0.37636444 -1.339834 -0.33047143 -0.28211153 0.1877868 0.6747808 -0.028673325 -0.5372127 -0.38613158 -0.29057837 0.02356364 0.36409223 -0.32660893 0.39198294 -0.6179222 -0.5684085 0.08763266 0.19885634 0.81073296 0.6422338 -0.13319603 -0.2276581 -0.26608455 -0.8747249 0.61830735 0.5919184 0.36888456 0.38334066 0.49931753 0.17792577 -0.13537757 -0.0037818407 0.88904333 0.24980786 0.2194529 0.18487604 -0.41216475 -0.28249043 0.98727596 -0.31140283 0.70040184 0.28291526 -0.8135926 0.0917175 -0.07797442 -0.14949207 -0.26252735 -0.91424185 -0.15549155 -0.6019391 0.09281689 -0.4009107 0.6688074 -0.565622 -0.23872289 0.76933515 1.3449996 0.07277132 0.5984039 0.45574838 0.07768145 0.109247774 -0.51710284 -0.080203325 0.19238478 0.62247044 -0.27912658 -0.35634497 0.3778348
429 -0.75712514 -0.46650153 0.3296354 -0.84903705 -0.14158638 -0.061654504 0.34961843 0.45795876 -0.59437567 0.14818312 -0.46244276 -0.3857973 0.011920677 0.21182217 0.12600926 0.119427115 0.0055261864 -0.0881203 -0.02799813 -0.26653314 -0.08847957 -0.035618123 -0.20738009 -0.06758266 -0.21852225 -0.7620981 0.35078585 -0.55565786 -0.2506273 -0.561272 0.45011103 0.4011403 -0.76296365 -0.24965769 0.25931022 0.17858249 0.43365464 -0.7826333 -0.3531204 -0.49740872 0.08143894 -0.5320279 0.039595094 0.09663525 0.54171145 -0.6371612 0.024107765 -0.256472 -0.28403836 -0.1641793 0.5503777 0.35249045 0.05611958 0.09555046 -0.53608495 0.24577215 0.65238726 0.55100876 0.23730044 0.7308267 0.4225873 0.05573676 0.083307676 0.7191224 0.03202037 0.6526234 -0.038294114 0.2791403 -0.8567209 0.45762143 -0.192398 0.50245523 0.73323315 -0.13452102 0.6930204 -0.41265965 -0.22934583 -0.052511867 -0.84082216 -0.17249905 -0.09025887 -0.44487903 -0.43477172 -0.011304034 -0.15453783 0.054207604 0.5323007 1.4919968 -0.16235276 0.3463567 0.026632654 0.10912754 0.4763387 -0.1997727 0.9237126 -0.0095695825 0.6474689 -0.82986724 0.24491382 -0.2556477
1131 -0.42574668 0.67564625 -0.22118776 0.20368929 0.31921083 -0.573012 -0.36510623 0.25041717 0.1908324 -0.3313434 -0.46932548 -0.30897054 -0.07527145 0.29957792 -0.19226466 0.40617454 -0.32035545 -0.33021975 0.23141368 -0.7159163 -0.21359938 -0.12238164 0.04457689 -0.51696277 0.03346559 -0.7777017 -0.24492018 0.6087991 -0.47231105 0.1429706 0.26534858 -0.6932535 -0.17364345 -0.14503604 0.32795212 0.32451072 -0.42747653 -0.4936493 -0.4591859 -0.70147467 0.23977618 -0.6473467 -0.14357927 0.04439529 -0.120981745 -0.5060949 0.1127128 -0.2443393 0.022592979 0.15658887 -0.2828578 -0.05810244 -0.32249087 -0.1814523 0.07518979 0.2566409 0.14718634 0.004914923 -0.41936222 -0.5671626 0.13900241 0.40360627 -0.4645925 0.22332233 -0.3568073 0.5370788 -0.26337522 -0.2988162 -0.560313 -0.47486782 0.2776007 -0.2763357 0.30476815 0.20502655 0.5950612 0.2753932 -0.11977371 -0.060725547 -0.8461198 0.48221493 0.1466546 -0.23399393 -0.3502033 1.1760063 -0.11259231 -0.20977755 0.51340514 0.7346776 0.082383245 0.7044149 -0.52532303 0.13509843 0.6469554 0.37853944 0.5189924 -0.20045394 0.11456635 0.4516747 0.43395793 0.08650383
118 -0.20786136 0.21324034 -0.97365326 0.29828048 0.7675864 0.2000213 0.42640024 0.6778681 0.2377864 0.2021282 -0.24528202 -0.17357805 0.49326122 0.32160607 0.06353574 -0.088757895 0.20197321 -0.39848796 -0.6045792 -0.8393079 -0.037492048 0.25096968 -0.11971379 -0.47503757 -0.83326185 -0.25616443 -0.07967837 0.48114696 -0.25979757 0.31837252 0.21288389 -0.43133184 -0.034582455 0.33975384 -0.1094757 0.6830816 -0.3150194 -0.2683328 -0.40211323 -0.74656636 0.42992896 -0.678355 -0.4323509 0.41387963 0.27555832 -0.27907974 -0.049843732 0.2076605 0.17906651 0.08991789 -0.17431419 -0.32072926 -0.37667587 0.15131935 -0.83263147 -0.3875579 0.22067897 0.007842083 -0.7466303 -0.42090815 0.010301293 0.3975089 -0.24129677 -0.23775083 -0.678919 0.59726846 -0.21192877 0.10528722 -0.48806724 0.116303876 0.48552683 -0.5586395 0.14640082 0.06624112 0.40054733 -0.03792389 0.31815153 -0.37956885 -0.7084649 0.5458989 -0.06664965 0.59120905 -0.24989037 1.1528815 -0.017105378 -0.44674397 -0.6303667 0.41489637 0.5488038 0.1951662 0.3668445 0.16074853 0.17840397 -0.25522962 0.12274043 -0.38517118 0.35730556 -0.22002055 0.73136866 -0.41273448
963 -0.9244933 0.39765754 -0.42505738 -0.20544152 0.21464506 -0.4283221 0.36508298 0.28601086 0.1679994 -0.13663365 -0.08624216 -0.739182 0.10838062 0.6161099 0.13300356 -0.52336645 0.22480248 -0.29741174 -0.66194594 -0.15778413 -0.5573953 0.36196837 0.55975753 -0.05967275 -0.027138347 0.09536801 -0.03239849 0.32560512 -1.3710022 -0.2100636 0.6098207 -0.04157398 -0.48963666 -0.7506519 0.1826307 -0.1644905 -0.3169743 0.020727882 0.19523105 -0.63104004 -0.12190384 -0.43525124 -0.3203453 -0.0032513659 0.16550943 0.1660835 -0.46733984 0.05310862 0.28156006 0.40178356 -0.27839643 -0.15758672 0.2833135 -0.24847184 -0.79774374 0.055358313 0.67741513 -0.19798368 -0.6065208 0.8171605 0.1695463 0.12445093 -0.27008572 0.3695083 -0.55745435 0.38619477 -0.9900165 -0.23348585 0.016215274 -0.15055503 0.33735412 -0.042039216 0.8525972 -0.27248964 0.4313597 0.51376396 -0.06823364 0.07916763 -0.10779996 -0.5707036 -0.029733684 0.035211224 0.36415297 -0.28072318 0.41632858 -0.35778508 -0.8407862 0.9411029 0.6297439 0.80807364 0.23057385 0.42940652 0.111133486 -0.57238454 -0.49875182 0.22759883 0.6575318 -0.72048557 -0.4100694 -0.46452785
1103 -0.28834847 0.082378425 -0.91173565 0.1968348 -0.48109728 -0.46510112 1.0096362 0.09701537 -0.20081133 0.121989414 -0.17236458 0.1477132 -0.23784791 0.893522 -0.2599404 -0.1880044 0.33827665 -0.057572477 0.34618062 -0.8657124 0.68392766 0.43601105 0.72963613 0.29191607 0.22597887 -0.20433375 -0.083476156 -0.13831154 -0.5646618 0.19943027 0.4138711 -0.30741954 0.8653942 -0.37165844 -0.087750494 0.003193715 0.22727248 -0.026890134 -0.48496765 -0.744325 -0.06607038 0.42347196 -0.2845375 0.652896 0.28717172 0.12754244 -0.7688101 0.019180903 -0.29449853 0.41735667 -0.70240706 0.0977044 -0.3446768 -0.22553276 0.46105492 -0.26845318 0.89436716 0.096324734 0.27840698 0.7286782 0.24487983 -0.19784562 -0.28779745 0.12375567 -0.97576815 -0.19883911 -0.73486805 -0.078085415 -0.44831178 0.7297818 0.12674522 0.5013369 0.5086037 -0.059515726 0.7193097 0.2906823 0.025493085 -0.11238493 -0.45090675 -0.68120456 -0.10311934 0.27972022 0.19121075 0.764935 -0.2567366 0.0796074 -0.034937426 0.04573769 0.2107249 0.18050522 0.31040397 0.061904114 -0.51434785 0.14125267 1.379307 0.6537839 -0.6829041 -0.48550496 0.3550193 0.074643835
2001 -0.6424769 -0.31552526 -0.17474727 -0.71034634 0.020251313 -0.075354345 0.29371724 0.5691703 -0.7206423 0.01468039 -0.35334674 -0.43352297 0.23954298 0.5621446 0.43990856 -0.026453769 0.16531248 -0.14860761 -0.41776636 -0.57091624 -0.06424198 -0.12514475 0.36470258 0.061731078 -0.44502175 -0.021396482 0.3267253 0.005554735 -0.337335 -0.62354517 0.2364277 0.4750388 -1.1383013 -0.15500927 0.5151048 0.25013837 0.47317895 -0.333773 -0.52596736 0.019091612 -0.10578173 -0.18462798 0.21215934 -0.006876153 0.75286067 -0.19488199 -0.44162047 -0.057980213 -0.2736251 0.09212924 0.29545647 -0.18800272 -0.5750099 0.078901745 -0.8530117 0.37750033 0.6933186 0.40213314 0.79395 0.28799677 0.3824184 0.03548099 0.1895419 0.8554748 0.35786372 0.12763652 -0.22079311 -0.42893803 -0.7311793 0.28227136 -0.3746623 0.6493484 0.08152786 -0.47320956 0.1573986 -0.32902065 -0.2116739 0.19264936 -0.7601734 -0.013498118 -0.1739641 -0.20342083 -0.37334168 0.11847833 -0.47036695 -0.07079812 0.21980703 1.0964711 -0.26558322 0.19029519 -0.111649565 0.11718978 0.34056592 -0.24407741 0.816855 -0.30881187 0.5971297 -0.81206065 -0.2444897 0.19078529
1416 -0.26694047 0.145828 -0.1023756 -0.14742869 0.34642792 -0.57108027 0.04287085 0.5586745 0.2499212 -0.4304535 -0.39376104 -0.7752278 0.210008 0.0038389307 0.25086156 -0.5985311 -0.646676 -0.52906466 0.4253126 -0.1001151 0.5271665 -0.09320596 0.2508885 -0.26462772 -0.07914499 -0.052649178 -0.10636837 0.26071575 -0.35098463 -0.39125186 0.6959016 -0.43529257 0.18576096 -0.19324063 0.33432305 -0.5657279 0.2801482 0.62815094 -0.25763372 -0.38209015 -0.43493685 -0.5671939 -0.44540888 -0.29204273 -0.11507974 -0.6888463 -0.18210487 -0.20949732 0.0658928 0.3894814 -0.17831047 0.09680083 -0.32181376 0.5273242 -0.41363564 0.61764765 0.1681584 0.14658119 -0.46143004 0.44189346 -0.16940811 0.67992324 0.32610235 0.11229647 -0.8393818 0.22305363 -0.4398963 0.55565584 0.12321393 -0.3342971 0.89291507 0.19741556 0.9596225 -0.2963394 1.2961899 -0.2356264 -0.23161633 0.17603588 -0.7924254 0.25274065 -0.43622792 -0.33882684 -0.7007239 0.514862 -0.099372655 -0.36359078 0.12832806 0.37964118 -0.08184234 0.22211881 0.27757648 0.601098 0.63729554 0.20877723 0.50093853 0.4707716 -0.12843202 0.020981345 -0.2699191 0.11142341
1483 -0.5650823 0.3622786 -0.087417275 -0.2690613 -0.024434846 -0.13216609 0.016905263 0.5200967 -0.18514714 0.0056911595 0.2964414 -0.2691815 0.102531515 0.037667945 0.47437385 -0.03457409 0.26394817 0.344888 -0.06726667 -0.29404503 0.65247464 0.5454494 0.38348028 0.080114394 0.4184738 0.24159363 -0.2270058 0.237987 -1.2251557 0.49905252 0.5797336 -0.18526044 0.04241737 -0.1629725 -0.7875261 0.14453831 -0.3270331 -0.21266368 -0.3672983 -0.5041958 0.2021559 -0.04226479 -0.18044476 0.66867566 0.07501698 0.24768357 -0.38641074 -0.5240929 0.066950694 -0.49375 -0.084027216 -0.014841571 0.11474983 0.37591097 -0.21116069 0.29498863 0.039944023 -0.16278945 -0.22583458 0.12620658 0.38908836 -0.35320544 -0.61408806 0.14371404 -1.0047596 -0.4360405 0.13790204 0.46377337 -0.9491977 0.68185425 0.23920457 0.36230034 0.024167132 -0.43738228 0.32803354 0.6306297 0.16212587 -0.380582 -0.40524763 -0.29406056 0.17146786 0.12055356 0.06417899 0.036505166 -0.102327876 0.44465137 0.027255824 0.098917246 0.67447007 -0.1425256 0.30204558 -0.10809966 0.02322348 0.091426976 1.164575 0.6101747 0.04378519 -0.65064675 -0.0411831 -0.1780922
2155 -0.72572386 -0.30858335 -0.41003263 -0.5149201 0.19048867 -0.71533877 -0.021969972 0.17870218 0.40777624 -0.28131804 -0.22239293 0.090254076 0.42637205 0.34137017 0.083740674 -0.013411582 -0.08661102 -0.8769336 0.36055675 -0.74060696 -0.30256832 0.041590046 -0.2486382 -0.4791442 -0.08418178 -0.39436433 0.057920795 0.48100704 -0.5413909 0.034126163 0.06290612 -0.5346558 0.2369432 -0.25536132 0.9422727 0.18267502 -0.013091725 -0.37208575 0.03517791 -0.5983554 0.2809246 -0.60135806 -0.29988512 -0.20913431 0.39573368 -0.6279815 0.10227609 -0.043683514 -0.1014742 0.14369808 -0.47715813 -0.14769614 0.7073631 0.42780012 0.080533184 0.4323671 0.34441745 0.06567272 -0.7693915 0.32494384 0.12351178 0.42991167 -0.11484349 0.3550456 -0.54722506 0.53963757 -0.46463627 0.75866723 -0.72973114 0.07687158 0.43564966 -0.22813542 0.6570231 -0.09428218 0.8251481 -0.17888518 -0.22455037 0.2501287 -0.6248594 -0.40188435 0.09081126 -0.48511386 -0.13025844 1.0602871 0.41249624 0.12840374 -0.21715938 1.2967721 0.56827205 0.50761485 -0.4004134 0.17643452 0.68447214 0.06506544 -0.026356094 0.13200986 0.23363636 -0.23807317 0.19618046 -0.33044767
1257 -0.32734966 0.1731725 -0.21058896 -0.6168375 -0.3624124 0.08615787 0.6841922 1.0456734 -0.09106224 -0.067976415 -0.5475255 -0.14856784 -0.49722058 -0.36082134 -0.22827722 -0.26138818 -0.09764872 -0.25936094 0.0027891572 -0.10448656 0.31331366 0.21376726 0.041844614 0.07107636 0.2619142 -0.09335836 -0.32347375 -0.45890343 -0.37485993 -0.15523596 0.29600874 0.20438075 -0.25015947 -0.22088632 -0.1978263 0.14420556 0.018872323 0.05527749 -0.22207783 -1.5081111 -0.18277813 -0.9475868 -0.5337922 0.24445836 1.1314414 -0.32309774 -0.06408587 -0.10518209 0.16720316 0.34653726 -0.05768362 0.20831622 -0.9831479 -0.26632187 0.020349573 -0.7754629 0.12956038 -0.5154637 0.24781282 -0.72516394 0.20525692 -0.18488687 -0.34887016 0.6987379 -0.35601616 0.41228145 -0.40290785 0.1559721 -0.3599571 0.40027797 0.48915234 0.89308417 0.30695724 -0.07838204 0.6696825 -0.1507111 -0.29196522 -1.0791606 0.10940999 0.21717459 0.28436893 -0.4371203 -0.4029394 -0.09529712 0.040940147 -0.9402184 -0.09493323 0.9103183 0.4319179 0.2999656 0.21922062 0.07324995 0.4508165 -0.40350914 0.9080058 0.8492678 0.26075512 -0.23158842 0.5250328 -0.23683658
973 -0.7528879 -0.070238166 -0.5762029 -0.013137533 0.36257967 -0.6655196 -0.43947813 0.50081253 -0.08642398 -0.22077677 0.18975183 0.24412695 0.4084879 0.19325213 0.54652476 -0.6466171 -0.40376213 -0.341283 -0.10366607 -0.7100391 -0.09636029 0.63508415 0.25974154 0.2650658 -0.10809222 0.16208743 0.4903597 0.06407822 -0.879171 0.2631666 -0.044977598 -1.0496917 0.7222494 -0.04925796 -0.014417639 0.3532628 -0.3083435 -0.03784807 -0.2005522 -0.23344225 0.7944437 -0.26822078 -0.1492678 -0.12309183 0.8506687 0.38036937 0.42491513 -0.47860977 0.04313156 -0.15875132 -0.4987983 -0.26380503 -0.23396088 0.45847666 -0.4632189 -0.19692875 0.43183857 -0.16224329 -0.4746907 -0.37581697 -0.13621113 0.3157176 0.22604461 0.46490794 -0.6392145 0.23210089 0.19447161 0.21368073 -0.4245157 0.7541655 0.6941223 0.062267944 0.48984274 -0.06869839 0.16469984 0.40769732 0.077138394 -0.25817972 -0.39922053 0.25468454 0.27540743 0.24661674 -0.39156958 0.8039584 0.4078204 -0.54630226 -0.43257138 0.36608624 0.39952907 0.29576206 0.12980601 0.14563318 0.6720508 -0.20110008 -0.04323702 0.46610984 0.15421812 -0.81659424 -0.44148922 0.34570712
436 0.20673533 0.22357005 -0.38620198 -0.13552724 -0.17496586 -0.6336666 -0.042025674 0.15207858 -0.07474989 -0.49562678 -0.058700744 0.12959509 -0.099539146 0.4919739 0.355302 -0.023331922 -0.556171 -0.7294217 0.14656894 -0.38704246 0.15822706 0.5586949 0.029008815 -0.5851441 -0.32087055 -0.6320809 -0.28465506 0.42294154 -0.98434806 -0.353633 0.36274427 -0.69093686 -0.6118175 -0.025443833 0.45194814 0.19927606 -0.11215666 0.021918608 -0.46723288 -0.6925075 -0.24853441 0.042204313 -0.14601342 0.06156355 0.0957955 -0.27933657 0.07999478 -0.047460005 -0.030039346 0.4972674 0.2871437 0.19858384 -0.7084222 -0.37132168 -0.3106307 0.5193428 0.46766672 0.30006528 -0.5087622 -0.30735877 -0.26941618 0.24477299 -0.0030793713 -0.1663058 -0.2993334 0.59782743 -0.2682403 -0.581435 -0.19167526 0.29964504 0.21766849 0.09050961 0.42280668 -0.59016985 -0.5625953 0.022907935 -0.02746839 0.12094449 -1.2787038 0.25195834 -0.07322581 0.21508276 -0.4078652 0.85820496 0.08897686 -0.6786491 0.5957683 0.9419668 0.59499174 0.79199725 -0.32444742 0.4388766 0.49174803 0.49863076 0.30437046 -0.15838994 0.5364622 0.20169133 -0.109013654 -0.7107837
2248 0.2540806 -0.022369273 -0.20245475 -0.49692795 -0.4080333 0.22249466 0.5121993 1.2465888 0.0852601 -0.10556847 -0.50330526 -0.44696325 -0.8454832 -0.11072564 -0.27564704 -0.08850789 -0.22616237 -0.2676363 -0.364581 -0.15862836 -0.10528559 0.025193598 -0.1753565 0.06586038 -0.24083966 -0.008226874 -0.3100314 -0.83110183 -0.3087549 -0.21482773 0.21443328 0.014042749 0.0011078591 -0.17838015 0.07144092 0.5256541 0.38505107 0.5415084 -0.37692496 -1.2500154 -0.37049666 -0.56101656 -0.6220567 0.3050474 1.1403363 -0.7069871 0.0902848 -0.26701728 0.35855436 0.53561145 -0.5684104 0.005450316 -0.90323764 -0.004327724 -0.38193095 -0.50286525 0.34723592 -0.33573437 0.3520914 -0.70793515 0.4546312 -0.1967908 -0.48813486 0.28480744 -0.62742555 0.16239506 -0.53005207 -0.11073153 -0.5676183 0.3981586 0.04187394 0.93968403 0.16698796 0.21846618 0.45354062 0.123560704 -0.39368102 -1.1718918 0.07082664 -0.071965456 0.11046051 -0.47932374 -0.2002874 -0.5143469 -0.26899186 -0.97147655 0.033477943 0.83763224 0.5543403 0.61301595 -0.29160705 0.1495267 0.30107987 -0.22510692 1.1018586 0.5324161 0.45119163 0.09454906 0.73258626 -0.19625244
661 -0.1990724 0.4587846 0.08913631 0.20730986 -0.056873728 -0.6337033 -0.057122465 0.42116165 -0.85454994 -0.41250944 0.16544212 -0.5459306 0.102956556 0.009079697 0.25965697 -0.28792527 -0.08632392 -0.37976155 -0.24801971 -0.46850243 -0.1110706 0.54100496 0.009336715 -0.6470347 0.1573132 0.30931094 -0.04842869 0.121691935 -0.96938777 -0.06546281 0.12115471 -0.8338531 0.6531083 -0.79124355 -0.54550004 0.5991215 -0.26452866 -0.5657745 -0.61814636 -0.39408588 0.5786812 0.21356149 -0.70433164 0.47443888 -0.27533913 -0.026574403 -0.085028015 -0.082323514 0.079137966 -0.10115059 -0.15492442 -0.081238545 -0.07056089 0.2076407 -0.87450176 -0.038845 -0.15460508 0.46760976 -0.50651246 0.021025574 -0.32500234 0.6625631 0.21779075 0.38317865 -0.5939666 0.10558973 -0.33754545 -0.5401778 -0.3891634 -0.28957856 -0.75434345 0.16255958 0.07193071 -0.8568814 0.11675072 1.1563818 0.7106949 -0.15174498 -0.030952023 0.08871012 -0.114196286 0.5479254 -0.71038914 0.5481165 0.13155834 -0.8553996 -0.11336898 0.50092614 0.168039 -0.20515996 0.168242 0.83289605 0.17370199 0.07428055 0.6222285 0.065970704 0.63488764 -0.41813332 0.20395729 -0.09948839
1950 -0.59119016 0.46876007 -0.5836532 -0.017143235 0.40442947 -0.28257337 0.4134014 1.2023226 -0.24888547 -0.4387637 -0.4824256 -0.64678353 -0.5259101 0.28699785 -0.12700887 -0.49749517 -0.054729857 -0.0153356595 0.006104326 -0.27456534 0.6104303 -0.40568006 0.8534541 0.15675046 -0.38166514 -0.5103717 -0.047069024 -0.53040123 -0.16544724 0.3645343 0.045265347 0.032005608 -0.09745945 -0.33304882 0.8141321 0.25626934 0.24748003 0.44674733 -0.4096255 -0.9031672 0.639253 -0.13173898 0.19803725 0.25531048 0.4702332 0.14808533 -0.32701302 -0.46447116 0.05606095 0.0046353294 0.583699 -0.39264098 -0.06600633 -0.6022824 -0.6038163 -0.29606634 0.7223675 -0.09730063 -0.18180251 -0.26107994 -0.13389276 0.31182316 -0.36720112 0.6632037 -0.16697234 0.92368996 -0.3278682 -0.20265327 -0.75756514 0.35684514 -0.385495 -0.2519394 1.429159 0.02630242 0.21510664 -0.18446422 0.6595841 -0.43454748 -0.4185518 0.23524868 -0.9492129 0.19298401 -0.0859344 0.27686766 0.07714872 -0.11447342 0.47290975 0.2551927 0.79951614 -0.06996218 0.26273653 -0.08715551 -0.12684093 0.11237009 0.15912433 0.2455192 0.5419091 0.2234288 -0.65482324 0.11345214
1765 -0.44765976 -0.036548328 -0.18652706 -0.19322762 -0.18620454 -0.36848494 -0.17771621 0.43625766 -0.88591737 -0.0240367 0.45395234 -0.47616458 -0.8018427 0.47746134 -0.020434955 -0.38464516 0.9331441 -0.84190714 -0.1589023 -0.5727233 0.46352497 0.48994702 0.89161503 -0.06441803 -0.42138672 0.35013393 -0.5550202 0.22764446 -0.59441614 -0.32795125 0.011932663 -0.12444406 0.39356667 -0.4544215 0.23811093 0.14082642 0.23974794 -0.3707187 -0.32614854 -0.6537444 -0.43904793 0.21346477 0.3014123 0.5549323 -0.4096391 -0.38409948 0.11569524 0.05978161 0.28627807 0.405993 -0.18149054 0.000116246396 -0.727913 -0.15542606 0.7107214 0.023687115 0.6845147 0.21699058 0.23397334 -0.2690603 0.54679877 -0.76150006 -0.582733 0.092489436 -0.45124796 0.2054869 -0.42916393 0.060428567 -0.37243304 0.80176914 0.39936125 0.7489137 0.92722356 -0.3987106 0.66740745 0.39995643 0.46164873 -0.1415872 -0.604781 -0.54512304 -0.33226925 -0.2748586 0.3778173 0.4964208 0.13798702 0.39666933 0.013276466 0.40563956 0.15067264 0.3771252 -0.06842178 -0.41291782 -0.36296812 0.20804605 0.66573805 0.49817592 -0.10238776 -0.17220911 -0.21387316 0.5171681
1628 -0.71933264 -0.122439675 -0.30603528 -0.07154361 0.0629837 -0.5957509 0.19375475 0.6257618 -0.078305915 -0.1814233 -0.75033706 -0.62960535 -0.03363101 0.76625025 0.3973833 -0.52967435 -0.9592566 -1.0978782 0.14143932 -0.1955542 0.3506309 -0.11428041 -0.02279396 -0.94429314 0.4379689 0.4107891 -0.9917848 0.3099257 0.049715072 -0.3938026 0.7285426 0.03235995 -0.43750545 0.02785194 -0.30643514 0.57350713 0.40433747 0.20906176 0.060823087 -0.8685842 0.15772346 0.26274326 -0.11343434 -0.107714094 0.0687675 -0.72921926 -0.9746252 0.09789989 -0.9050883 0.044195127 0.048526477 -0.45357352 -0.111634284 0.6153207 -0.39139304 0.11238637 -0.527736 -0.016346615 -0.9172041 -0.047861926 0.38117483 0.36102164 -0.27845854 -0.6208627 -0.33604792 0.034983523 -0.49897328 0.53688204 -0.42022222 0.62393385 0.48592466 0.34021324 0.33875152 -0.3995123 0.35058194 -0.106743835 -0.6777642 -0.3466352 0.00093868683 -0.227296 -0.38484004 0.10969949 -0.48407504 0.17105576 -0.14422463 -0.19084081 0.35677785 0.72373897 0.73296005 -0.4105372 0.9430303 0.31213826 0.35977474 -0.41009617 0.09698908 0.58614755 0.02893386 -0.2555 -0.5228534 -0.37768772
1703 -0.50451326 0.6542218 -0.14452727 -0.5145435 -0.15235685 0.06244564 0.4133221 0.088396996 -0.080874905 -0.43620098 -0.22735207 -0.8179911 -0.06954632 0.37506935 -0.18839075 -0.50427717 0.084096305 -0.6670952 -0.61789984 -0.18592276 -0.39419475 0.30972347 0.28783178 0.011222053 0.0646995 -0.5263729 0.065084614 -0.05491191 -0.9827189 -0.20052236 -0.2225271 0.5541559 -1.1248608 -0.4966714 0.21794361 -0.19381586 -0.041982517 0.0102196885 0.49222076 -1.0356742 -0.089894824 0.055974483 -0.3358843 0.28394976 -0.37929463 -0.033061437 0.010784102 0.37705654 -0.25591868 0.41096035 0.36858442 -0.16567989 -0.17850627 -0.28482884 -1.0891796 -0.22485253 0.69301754 0.09597413 -0.36127728 0.48312515 0.27804735 -0.09504096 -0.16974518 0.15173945 -0.498972 0.071608044 -0.52851903 -0.20392306 -0.3406906 0.21058337 0.2698989 0.26761696 0.8282228 0.32574496 0.69527376 -0.010574898 -0.44661 -0.19058102 -0.31469646 -0.47419968 0.29476538 0.12482581 0.3964672 -0.13601696 0.4244799 -0.15221202 -0.3617089 1.0682098 -0.20450094 0.68526757 0.6798358 0.52136433 0.13472143 -0.73834395 -0.07432466 -0.017214077 0.7557136 -0.7068837 0.21028502 -0.42326972
507 0.120231695 -0.10294615 -0.76554596 -0.8492938 0.12276624 -0.5982455 0.6585909 0.9318332 0.23646428 -0.34202182 -0.037514914 -0.8834493 -0.7000237 -0.3777519 -0.033784557 -0.1081977 -0.027020274 -0.8564874 -0.3405431 -0.85881877 0.64847046 0.05842634 -0.1299579 -0.40839785 -0.30031198 0.20666784 -0.22118312 -0.24774532 0.044566862 -0.12660529 0.27863628 -0.32767695 -0.24278761 -0.6365887 0.5383983 -0.70338434 0.4955403 -0.009997123 0.16289966 -1.0230331 0.52201337 -0.37980315 0.33427846 0.8251999 0.41786036 0.043665577 -0.5639657 0.4059914 -0.30878633 0.34527904 0.50848335 -0.44237477 0.048718173 0.07109597 0.18171187 0.019205052 1.1299667 -0.27092305 -0.24530777 -0.093307704 -0.28800136 0.2001839 -0.38768876 0.58822805 -0.29373083 1.144571 -0.8868961 -0.2895041 -0.7650709 -0.013058959 -0.6802337 0.21037331 1.2014158 -0.41642222 0.24877608 0.18730289 0.6318271 -0.7517441 -0.49313042 -0.17084986 -0.58666575 0.7762921 -0.40707844 0.3018022 0.2965467 -0.45088607 0.1103264 0.04032897 0.31979728 -0.57145095 0.044615336 -0.038818568 0.022689369 0.7304614 1.3266641 0.20994247 0.39737692 0.40869042 -0.046200484 0.32607904
2394 -0.85880727 0.3184372 -0.08293675 -0.2354379 0.41879416 -0.52263427 0.12051464 0.65033865 0.085792586 -0.14167884 0.2770673 -1.0291761 0.18916363 -0.1483731 0.22812325 -0.08734198 -0.55697674 -0.24533471 -0.23461145 -1.2976335 -0.37516627 0.079542555 0.088859245 -0.2462345 -0.21032187 -0.43124914 -0.4197715 -0.109487794 -0.34889537 -0.9842754 0.4777485 -0.33246583 0.78067416 -0.35412923 -0.29554415 -0.022374138 0.2911095 0.019736644 -0.15475577 -0.8031878 0.25120872 0.1136672 -0.8115899 0.1350174 -0.0041169105 -0.25945723 -0.44522384 0.14100632 -0.72487074 0.5210612 -0.08504738 -0.38539976 -0.4676545 -0.24767426 0.06920478 -0.40093908 0.93277675 -0.42254037 0.36425546 -0.32545468 -0.65907586 -0.08816872 0.5339705 0.39111415 -0.9637341 -0.17108443 -0.27688083 0.112916194 0.06759885 -0.16912334 0.32763168 -0.4508462 0.6149786 -0.41898572 -0.33828905 0.052157488 0.11572684 -0.88621616 -1.1856772 -0.46943986 -0.2882339 0.37799898 0.5672167 0.72544235 0.33168128 0.097953856 0.03983526 0.6989479 0.28783894 0.66097945 0.04216316 0.48728257 0.08550815 0.30479828 0.64700055 0.72743165 0.06446785 -0.0137502225 0.49449083 -0.27957746
2671 -0.47041848 0.23545964 -0.14768827 -0.24397266 -0.56725454 -0.17338908 0.6469768 1.1325037 -0.04974856 -0.20204262 -0.37801477 -0.23055865 -0.34557948 -0.37504888 -0.18675108 -0.40825188 -0.19041988 -0.42809504 0.20964377 -0.14060816 0.40029287 0.21450043 0.034676827 0.037591554 0.57381546 0.01685992 -0.28741255 -0.5548836 -0.45095676 -0.37755093 0.24501413 -0.068993956 -0.27548242 -0.20170967 -0.44150162 0.082222246 -0.010456141 -0.061587837 -0.44933242 -1.6792074 -0.13739601 -0.92712057 -0.66705596 0.13197425 0.88034785 -0.25878036 0.02814795 -0.099551424 0.3183233 0.25427797 -0.25876734 0.16185682 -1.03349 -0.485879 0.037263174 -0.64689946 0.0883432 -0.77633953 0.4451345 -0.88930017 0.2831303 -0.21193571 -0.2966334 0.48655108 -0.5297393 0.42988244 -0.46546277 0.45893216 -0.44572163 0.17309132 0.67517596 1.1232458 0.49393982 -0.15612675 0.5648679 -0.18289523 -0.17631157 -1.1332929 0.034264963 0.2219587 0.32856897 -0.46184182 -0.37630346 0.23129009 -0.04130248 -1.2063332 -0.012559948 0.81201506 0.40757388 -0.066260085 0.16184285 0.025882911 0.22471109 -0.20948084 1.0206426 0.9600225 0.32680207 -0.03908443 0.39147085 -0.30575368
310 -0.2845719 0.57048726 -0.59348094 -0.0035579472 0.49742463 -0.37469125 0.47785348 1.2214042 -0.095185794 -0.5876238 -0.48331732 -0.43597364 -0.6271024 0.17440988 -0.31012 -0.55682135 0.042815257 0.046295088 0.18949464 -0.2129171 0.45490882 -0.19443215 0.7892111 0.39568868 -0.457534 -0.52287656 -0.2874476 -0.3947451 -0.43408492 0.35796994 0.03156651 0.04913349 -0.0548599 -0.30067128 0.7533461 0.32020706 0.2504468 0.28225714 -0.5449199 -0.7221612 0.6447249 -0.2493503 -0.006058649 0.22507548 0.3556799 0.13611569 -0.19758761 -0.7434347 -0.1324089 0.09958514 0.7660206 -0.45411474 -0.11247232 -0.7069787 -0.6508427 -0.3649271 0.63450825 -0.17437483 0.040562786 -0.06316313 -0.0050886953 0.016636632 -0.22306001 0.52680427 -0.4011686 0.8420621 0.00924012 -0.14226311 -0.79100895 0.3996938 -0.5347379 -0.13250504 1.549351 -0.0776987 0.17555694 -0.21493992 0.5011968 -0.3652117 -0.49861634 0.20294228 -0.99644315 0.18473646 -0.17678063 0.33973035 -0.07686322 -0.11477096 0.31358597 0.15260822 0.47391576 0.06293966 0.37233847 -0.21954173 0.09340596 0.03769073 0.2862998 0.0560528 0.69823027 0.35918438 -0.5988431 0.117863946
1894 -0.9317469 0.12018045 -0.1418423 -0.38118574 0.66731274 0.12384614 -0.33140868 0.27451256 -0.9282038 0.3729298 -0.08277948 -0.14909121 -0.27335498 0.19756015 0.41118512 0.3017667 -0.02476515 -0.5341996 0.033876106 -0.55117446 0.10337177 -0.43497482 0.5168001 -0.31908113 -0.2155308 -0.42854637 0.30215952 -0.1990243 -0.40669683 -0.0888873 0.30796072 -0.3123808 -0.5972458 -0.7253094 0.7123242 0.11981531 0.101021186 -0.15562898 0.31461164 -0.72369653 0.3146224 -0.14967558 0.14811383 0.31036562 -0.028701952 -0.024221687 0.019765973 0.3869159 0.36115164 -0.21095917 0.14586323 -0.30925524 0.30095077 -0.1460751 0.07437258 0.17969006 0.4657916 0.43730205 -0.5727096 -0.6678351 -0.31044543 0.6337671 -0.88400555 0.6508455 -0.070661984 0.21152025 -0.56340516 -0.23761807 -0.22574975 -0.0016084815 0.50427884 0.32769364 0.67639816 0.27878273 0.39148548 -0.17896797 -0.010689743 -0.2081404 -0.31241035 0.17678085 0.09141393 0.103322215 0.1501801 0.28492993 -0.11756575 0.08467862 0.8351121 0.8688036 0.49118194 0.15694706 -0.6982933 0.028239818 -0.48079953 0.45470184 1.0307536 0.45551676 0.20046532 -0.21677133 0.12248801 0.014898532
2130 -0.6760804 0.0634164 0.13504319 -0.7327871 -0.6019955 -0.007291586 0.42471915 0.52225286 -0.39977726 0.24860895 -0.73708695 -0.3081919 -0.5395106 -0.74263304 -0.0030540146 -0.4045676 -0.43447772 -0.58165324 -0.15384878 -0.42692703 0.3438625 0.055404037 0.013691454 0.069625996 0.074162275 -0.6042167 0.04895997 -0.8118244 -0.45900312 -0.2566267 0.67645216 0.18010245 -0.19034667 -0.3802062 0.14152554 0.068003535 0.45960206 -0.26347706 -0.7025107 -1.1452814 0.13570243 -1.0219544 -0.4587046 0.5701408 0.5771134 -0.32547918 0.15722176 -0.098544076 -0.06833842 0.271614 0.11504829 -0.09959368 -0.089090765 0.10776909 -0.25640094 -0.09675679 0.32079324 0.0038327703 -0.4362159 -0.6310371 0.53590375 -0.23671252 0.24275334 0.01672919 0.28316262 0.7392817 -0.21499065 0.44326323 -0.5342873 0.1763996 0.04117608 0.8411681 0.48238817 0.45622116 0.36819872 -0.12862255 0.08990426 -0.8623894 -0.11315484 0.29382008 0.1599102 -0.5796663 -0.14021342 -0.6305299 -0.29227763 -0.84583026 0.7478307 1.0426152 -0.014152405 0.11497504 0.18644191 0.35856798 -0.38093814 -0.26523834 1.0239738 0.7585529 0.15918939 -0.52985996 0.8393685 -0.62419724
687 0.026134264 0.7261392 0.36534575 -0.13820541 0.3111711 -0.29109758 -0.0333009 0.7358628 -1.3057299 -0.3382589 0.23550992 -0.15924029 0.2571531 0.9622414 0.543173 0.14026846 -0.08303514 0.14442612 0.23785523 -0.94749904 0.5234003 0.08391086 0.6442952 -0.20702145 0.19290085 0.15607496 -0.60682243 0.131006 -0.7408397 -0.08753748 0.631551 0.1386015 0.26527205 0.03864283 -0.29013222 -0.07503582 -0.47772592 -0.51349247 -0.46797088 -0.7795201 -0.18474787 -0.021595692 -0.065082 0.4809042 0.15303488 -0.20281704 0.33483353 0.24731828 0.024152257 0.39589307 -0.10938878 0.06027854 -0.7293295 -0.28011775 0.19915248 0.30676892 0.54273146 -0.28656983 -0.10709201 -0.23577298 0.51436144 0.12101415 -0.6389526 -0.19712278 -0.6254382 0.08638979 -0.109569184 0.27434906 -0.15367736 0.25553003 -0.20907317 -0.18073817 0.3713611 0.25309047 0.3013272 0.17454319 -0.11831794 -0.48379174 -0.47296157 -0.10043119 -0.11960464 0.013999589 0.03535183 0.579939 -0.04692455 0.2489144 0.39824378 -0.25221092 0.29962224 0.39998516 -0.34470722 -0.48379692 0.061449286 0.66392165 0.5720273 0.6095001 -0.46251982 -0.6951425 -0.35645 0.66434914
1309 -0.8392796 0.83400804 0.27488956 0.43263483 0.20540161 -0.7484041 -0.08343805 0.3172345 0.14862148 -0.17373289 -0.26089883 -0.3899087 -0.17199649 0.3370385 0.13864681 -0.50287807 -1.1716764 -1.0365928 -0.181175 -0.6451141 0.13439243 0.5330887 0.16230409 -0.5495203 0.0034179646 -0.09980668 -0.4008679 -0.07559229 -0.14357908 -0.1809776 -0.54472756 -0.75235 0.4183464 -0.35238174 0.27895015 0.53593236 -0.2706366 -0.22981949 -0.50059426 -0.51527226 -0.5785069 -0.19542229 -0.8193764 0.20819034 0.039369293 -0.39465666 -0.20501208 0.06300761 -0.0517816 0.5330594 0.27707088 -0.1802033 -0.4480154 -0.27534157 -0.22417049 -0.07167964 -0.4692431 0.28694287 0.1809931 0.029683964 -0.47549954 0.10741768 0.5049777 -0.19726673 -0.8331173 0.36659482 -0.33275163 -0.13824515 -0.80224144 -0.11402504 0.30776933 -0.070361234 0.22107038 -0.81629217 0.6580822 0.46205813 0.361996 -0.32497144 -0.6578627 0.22554247 -0.2701412 0.45821273 -0.6005951 0.15055908 0.017925117 -0.36066508 0.4438771 0.05584798 -0.07038374 0.7947702 -0.17722487 0.5029738 -0.015618252 0.25835752 0.67293227 0.6827088 0.08722982 0.31072196 0.02483712 -0.76069266
833 -0.29788128 -0.08829608 -0.5190218 -0.43531418 -0.305881 -0.58638203 0.8759577 1.1251799 -0.98735416 -0.026388805 0.4140019 0.03467863 -0.41615218 0.3665128 -0.37452805 -0.7155842 -0.06312531 -0.8301158 -0.4205292 -0.2810288 0.9092711 -0.3079931 0.24652618 0.10952928 -0.2199073 -0.54898465 0.55513775 -0.2836193 -0.086916886 -0.40977177 0.6572014 0.75544834 -0.16411866 -0.7682702 0.5057135 0.33790988 0.39669737 -0.2939764 0.10560177 -1.2475858 0.6397245 -0.34753534 -0.124395646 0.6961871 -0.25348228 -0.46530318 -0.12779768 0.31387734 -0.021919632 -0.021610288 -0.16339837 -0.7967936 0.36346728 -0.7053811 0.2557445 -0.16566607 0.5318947 0.3969254 0.15704288 0.19368096 0.31434676 -0.5326824 0.07909266 -0.25667837 -0.7105211 -0.17501731 -0.28910592 0.43104714 -0.53128433 0.3017771 -0.07823689 0.19518296 0.35732907 0.28348926 0.97362447 0.06846268 -0.20610392 -0.42095253 -0.7980215 0.12890919 0.31028843 0.30690318 -0.23911053 0.015334419 -0.65860355 -0.7151144 0.42895907 0.07092056 0.2309084 0.3018425 -0.09559446 -0.12697299 0.34405044 0.28006014 1.1069341 0.39372668 -0.042750172 -0.2831112 0.46012878 0.09520612
1725 0.2291094 0.09221624 0.44440335 0.37272972 0.35935366 0.035497908 -0.30462018 0.17489663 -0.68234235 -0.15911902 -0.25452694 0.15466833 0.0044076247 0.2157388 0.57893074 -0.26502967 0.3652358 -0.05747676 -0.31405595 -0.73102975 0.22980621 0.3552922 0.4763713 -0.18674034 0.014150687 -0.07088099 -0.19964708 -0.2077771 -0.35102874 0.34989497 0.19162574 -0.38805443 0.15678187 -0.36646363 0.0682733 -0.27379787 -0.57045513 -0.32727358 -0.028055701 -0.4597084 0.2419606 -0.41156322 -0.22323899 0.83918893 0.36073938 -0.17260288 0.098545544 0.10536632 0.3421317 0.11936264 0.16065808 0.28655192 -0.89214414 -0.02014924 0.23456287 -0.051472545 0.2486386 -0.5060898 0.18487161 -0.4022106 0.54347223 0.34434682 -0.58257926 0.011651692 -1.0356706 -0.013993084 0.15584263 0.5136215 -0.63524336 0.366399 -0.48683664 0.5458718 0.5183789 -0.5829092 0.4845868 0.46581748 -0.18272209 -0.6488461 -0.50422215 -0.26292956 0.08850296 -0.16148001 -0.088449195 1.0953295 -0.1316539 0.28634873 0.29970896 -0.46720532 0.76793444 0.7286174 -0.54702353 -0.04989291 0.3188866 0.23327976 0.4255819 0.58139676 -0.7873916 -0.6958966 0.027850091 0.47984284
1413 0.22136725 -0.06374229 -0.61287796 -0.7129449 -0.008889755 -0.6974104 0.8008429 0.9227503 0.2549938 -0.5447272 -0.018909525 -0.8971884 -0.52992314 -0.24526633 -0.15752198 -0.08599119 0.09762965 -0.7229763 -0.3832926 -0.97003436 0.688794 0.27743998 -0.16033708 -0.2671347 -0.2979064 0.49259093 -0.27103814 -0.24876007 0.0911315 -0.11339076 0.1508602 -0.34491402 -0.16206524 -0.6865962 0.34488758 -0.66886264 0.575897 0.03905071 0.060528122 -0.79112154 0.49304962 -0.52123773 0.2373273 0.8023359 0.38601062 0.17597479 -0.5850923 0.19856253 -0.33899388 0.439792 0.4389849 -0.521221 -0.12561455 -0.080064215 0.14759107 -0.06539624 1.1251638 -0.29443017 -0.1746148 0.19425233 -0.22060667 0.03207086 -0.20012054 0.49795198 -0.29551882 1.0587436 -0.78408813 -0.17870696 -0.7012922 -0.011434046 -0.76393306 0.121894814 1.116153 -0.37858763 0.26044366 0.14972864 0.6277149 -0.67442715 -0.5697959 -0.061820425 -0.4223212 0.8251343 -0.37535825 0.17563996 0.27201784 -0.45898128 0.0077211536 -0.05473106 0.1889188 -0.49656883 0.20992033 -0.045835674 0.22184104 0.5759599 1.3066456 0.068947196 0.34310377 0.28661737 -0.081715174 0.42572722
239 -0.41907558 0.5256341 -0.0980984 0.12529688 0.53204244 -0.7015716 0.17068322 0.53116906 -0.49108282 -0.7957864 -0.58599466 -0.602443 0.30127168 0.20958205 0.5416601 0.328148 -0.51237893 0.21745671 -0.25273928 0.08884538 -0.21822083 1.053593 -0.35914963 -0.2534662 0.03827909 0.20544365 -0.7610932 0.0939708 -0.43344495 -0.29194993 0.5133227 0.0009831577 -0.4376365 -0.19450982 -0.44592622 0.1094536 -0.019480733 -0.1932357 0.40429696 -0.49115178 0.35929137 0.08525254 0.0051226215 0.12115437 -0.54166186 -0.5943171 -0.3899697 0.03546361 -0.25054026 -0.21386714 -0.2803245 -0.705746 -0.089916036 0.025099786 -0.49082217 0.6612907 -0.42777014 -0.35675943 -0.054237448 -0.13951014 0.676505 0.42866915 -0.30882484 -0.45944628 -0.89156175 0.19660816 -0.43518555 0.42582253 -0.93316007 0.4851821 0.77593184 0.0969892 0.8328797 -0.1434771 0.42352706 0.18492176 -0.105721466 0.055097274 -0.13338974 0.05511853 -0.40883294 -0.010453816 -0.38605702 0.8001617 -0.627926 -0.15174471 0.59027326 0.61717933 0.5256636 0.15832384 0.118212655 0.15388626 0.2299547 -0.025398511 0.31646955 0.30207637 -0.44197166 0.28710338 0.11324378 0.2057099
1015 -1.1158866 -0.23324507 -0.39596587 -0.7339484 -0.037360407 0.028811738 0.6255471 0.65477836 0.051296446 -0.008325662 -0.38555408 -0.58039093 0.12163544 -0.27950907 -0.0197132 0.5595754 -0.3092297 -0.018654061 -0.38666505 -0.12223511 -0.37184736 -0.06544664 -0.025859166 -0.5089495 -0.29125202 -0.35251194 0.21590614 -0.12549666 -0.5497445 -0.6567093 0.2791891 0.18246019 0.008964903 -1.0962723 0.2987933 0.2199625 -0.49572888 -0.21924007 0.053399697 -0.48877108 0.29513627 -0.23027077 -0.13992503 0.13343821 0.77321994 -0.31320977 -0.32908303 -0.112132736 0.18010184 -0.11314817 0.30841047 -0.39918408 -0.13049534 0.08984839 -0.4897342 -0.29581687 -0.06526966 -0.45948496 0.11359696 1.0177191 0.17942443 0.697494 0.030646907 0.34690756 0.48292875 0.57534933 -0.82334566 0.15838248 -0.35169855 0.28115755 0.40064484 0.11113717 0.5492253 -0.30436817 0.7648822 0.030156383 0.07082996 -0.6866884 -0.8932737 -0.3791876 0.055525858 -0.40134922 -0.55770695 0.44334596 -0.5350367 -0.12134133 -0.4053236 1.3463153 0.7494033 0.17232858 0.30958703 0.44667673 0.86636454 -0.5119364 -0.11758657 0.17383486 0.32543144 -0.74236685 -0.018300598 -0.3479997
1624 -0.8458864 0.23969615 -0.1991628 -0.03500851 0.33371377 -0.30104354 0.29739767 0.76372206 -0.38608867 -0.4178652 -0.42710376 -0.91479445 0.6191602 0.37271985 0.16333695 -0.13980916 -0.48223624 -0.12982363 -0.2668103 -0.092994966 -0.41126764 0.5718741 0.4237506 -0.029298017 -0.13256721 0.77143097 -0.1197509 -0.07355189 -0.98169523 -0.01958043 0.35402262 0.11172174 -0.25301966 -0.49346784 -0.35199338 -0.1933699 -0.21793644 0.18643448 -0.24666259 0.007158765 0.3327323 -0.3808639 -0.20991887 0.41390198 0.16632943 -0.22857432 -0.431773 -0.42643768 0.30191183 -0.26973525 -0.12652718 -0.6115279 0.52491665 -0.43101856 -0.8307798 -0.07340632 -0.1594704 -0.39517212 -0.08680837 0.45735836 1.0757223 0.38305303 -0.14362678 -0.018783668 -0.16816601 0.7324422 -0.5571259 0.27602017 -0.6353323 0.25680402 -0.013284015 -0.12548026 0.86468345 -0.33352283 0.44601092 0.6239026 0.06726433 -0.23343666 -0.2886405 -0.32011408 -0.000973331 -0.11840801 -0.37706563 -0.24228282 -0.9107611 -0.21231861 -0.1183627 0.591365 1.175695 0.55236834 0.19414344 0.38600993 0.06974331 -0.19148965 -0.43638137 -0.17008623 0.022082392 -0.61327773 -0.046985354 -0.051085602
1229 -0.16355814 0.034239646 -0.09609796 0.33340862 -0.20848781 -0.54083174 0.9247066 0.8415723 -0.31429806 -0.0029344799 -0.5715526 -0.699249 -0.2832929 0.25293386 0.56168413 0.11402373 -0.18625383 -1.1124785 -0.03066407 -0.8869514 0.8999124 0.43463972 0.16733055 0.1399316 -0.22333355 0.38914537 -0.43490475 0.0001371749 -0.4736252 0.3085818 0.23429711 -0.6319805 0.40309164 -0.45390525 0.41885358 0.082042046 0.23152095 -0.07863157 -0.07538705 -0.23068269 -0.09109573 -0.43537945 -0.47941312 0.36205688 0.6101817 -0.032788783 -0.12589881 -0.05357867 0.5340765 -0.03479988 0.4447254 0.30934095 -0.23635073 -0.27267763 0.41555142 0.08323862 0.29928863 -0.7266548 -0.15439114 0.015744472 0.2826702 -0.060380805 -1.1504097 -0.26811045 -0.46752527 -0.6906178 0.06875189 -0.023301717 -0.54551905 -0.015993563 -0.009315359 0.5583522 0.2991301 -0.8783743 0.3571465 0.7368288 -0.09914301 -0.35923234 -0.98614955 -0.35481533 -0.14780277 0.4343729 -0.086304836 0.6330663 -0.444093 0.52790797 -0.24738547 -0.10751201 0.26375332 0.3323839 -0.17471129 0.11386464 -0.2761977 -0.42821383 0.3204817 0.1578265 -0.64147025 -0.35857558 0.17406112 0.4579421
1927 -0.59252924 0.55486476 0.012573627 -0.24812783 0.15874568 -0.75735605 0.17720968 0.4487331 0.06606167 -0.82316506 -0.19711494 -0.92178833 -0.28746 -0.07655549 -0.041391894 -0.48992604 -0.68883616 -0.6272741 0.22733004 -0.4653276 0.016554415 0.08141932 0.083334 -0.10986957 -0.2996316 -0.9408334 -0.030453723 0.1676206 0.17620873 -0.19580206 0.40879124 -0.18946795 0.1878264 -0.13401788 0.70033234 -0.42010945 0.00037896688 0.056713507 0.09399246 -0.51716626 0.01510111 -0.8886882 -0.30847734 0.16581559 0.090529986 -0.37299207 0.2822389 0.08857534 -0.1402458 0.6790505 -0.21693142 -0.036092877 -0.31603828 0.38454342 -0.116701484 0.33579236 0.38643903 -0.1266407 -0.8019225 -0.17985314 -0.15869987 0.30269405 0.44735602 -0.08680871 -0.5384147 0.3033022 0.0054992842 0.38586497 -0.089858666 -0.52227056 0.14589816 0.17672573 1.2517418 -0.2280098 1.3454673 -0.45085645 -0.05910145 -0.26845264 -0.7511223 -0.0017274279 0.29326895 -0.3217401 -0.56185395 0.90115565 0.32351917 -0.502951 -0.3807331 0.26980814 -0.6569909 0.350266 0.07322904 0.6425399 0.5961146 0.17326678 1.0265127 0.23796262 0.34290805 -0.12738281 0.6033903 -0.27768928
1050 0.13779883 0.15865067 -0.16841292 -0.120535135 0.22839205 -0.067818575 0.82982504 0.79681385 0.056433454 -0.35409686 -0.37213677 -0.43427584 -1.2295269 0.42248532 -0.15228444 -0.29731572 0.047827512 0.16824466 -1.0545335 -0.42335978 -0.62489897 -0.30747712 0.10548696 -0.7415337 -0.15370555 -0.2601766 -0.28839654 -0.09048761 -0.36802292 0.056313537 0.40557864 0.045580905 -0.4741059 0.036887437 -0.27166787 -0.15869823 0.37029034 0.28273177 0.336763 -1.139307 -0.9108383 -0.22434968 -0.45125785 0.1100303 1.1502923 -0.3658754 -0.14895532 0.35713294 -0.27560106 0.13483764 0.3459371 -0.23500936 -0.36810008 -0.1118427 -0.91587627 -0.8540945 0.606431 0.11045974 0.11450158 0.56366587 0.79323375 0.009221266 -0.20823936 0.34599462 -0.18798698 0.07520431 -0.5697418 -0.24295685 -0.1293173 0.024222726 -0.14175566 0.71405035 0.7342165 -0.02375921 0.7185057 -0.2536655 -0.58186895 -1.0200444 -0.4329379 -0.43678486 0.43128613 0.31460735 -0.15739638 -0.07588973 0.18180528 -0.3105549 0.23464413 0.14918698 0.6147768 0.5979247 0.5454316 0.66842216 0.41450712 0.16372485 0.7977353 0.45214087 0.4297447 0.45903945 0.85671335 -0.33650863
1973 -0.7659366 0.14152971 0.0525796 0.073874466 0.08830802 -0.6834554 0.5222462 0.4904143 -0.13983822 -0.38243797 0.13748692 -0.21582592 -0.26730838 -0.32619053 0.14966458 0.1900464 -0.7854988 -0.52833617 -0.21939068 -1.3572432 -0.14532225 0.52696973 -0.3247477 0.21501353 -0.115717664 -0.016797787 0.04554659 0.79362845 -0.49622914 -0.4857141 -0.11467612 -0.37717554 0.6012617 -0.2105808 0.12586395 0.34980127 0.16178091 0.29043612 -0.48322883 -0.78628355 0.6798913 -0.6226897 -0.5595895 -0.13136818 0.032122895 0.0043110615 -0.602222 0.26153502 -0.9042863 0.48950613 -0.7985875 -0.6317236 -0.40377852 -0.19829477 -0.23212937 -0.8640642 0.2737991 0.28927845 0.16444574 -0.18427911 -0.68135834 0.7369391 -0.34431636 0.48464724 -0.86406595 0.25137767 -0.3188415 0.123166576 -0.2922815 -0.08245161 -0.04452756 0.083250955 -0.3629545 -0.9146789 0.31857723 -0.07620935 0.23674084 0.077458926 -0.56328785 -0.05661425 0.17090756 0.2949484 -0.331319 1.0426981 0.38702303 0.098922454 -0.34657896 0.7117724 0.67189753 -0.20304078 -0.5544868 0.03954354 0.59090555 0.26875463 0.5826838 0.2324272 -0.039642856 0.3873416 0.5531095 -0.03984401
1742 0.2425938 -0.27615836 0.19740547 0.12487542 -0.111789405 0.3628123 -0.3210871 0.3049728 -0.4673223 -0.024433058 -0.37523463 -0.48084474 -0.27758178 0.47918352 0.20873672 -0.048894607 -0.16775686 -0.7195018 -0.27663678 -0.5194157 0.52079093 0.822951 0.099433534 0.59035975 -0.46758342 -0.13797098 0.061480235 -0.35798374 -0.91950047 0.38377735 0.80880064 -0.23607028 0.15318346 -0.36743924 0.5247661 0.63506967 -0.13025552 -0.2550317 0.040507533 -0.6964551 -0.28556454 -0.4958568 -0.2969247 0.2674789 0.23435067 -0.043997064 -0.42628568 0.16914877 -0.07921815 0.37911645 0.2541369 0.5225351 -0.56504107 0.1235286 0.37567523 0.21975733 0.349367 -0.2543198 -0.44995168 -0.17502493 0.34852716 -0.3100883 -0.47444546 -0.13064052 -0.9174326 0.10423158 -0.091757655 0.44903776 -0.5003654 0.18168877 -0.51872116 0.5485675 0.6899789 -0.29132986 0.6263146 0.5179377 0.20500761 -0.024886992 -0.83564544 -0.23542103 -0.26124424 -0.26197466 0.11251432 0.35416967 -0.23995884 0.2845791 0.24878575 0.073408574 -0.11987882 0.69212204 0.32935986 -0.37960446 0.013257561 0.3686358 0.5259527 0.7471364 -0.3891274 -0.33724865 -0.07669668 0.5906217
1119 -0.7991541 0.4221483 0.5318577 -0.12620252 -0.683114 -0.3599366 0.5338737 0.8546246 -0.3936579 0.18706621 -0.6553404 -0.2532384 -0.1941561 -0.6941621 -0.15696034 -0.6640021 -0.2904327 -0.4424424 -0.6142744 -0.88006705 0.37366056 0.3909536 0.310229 -0.03276695 -0.10857476 0.093849346 -0.31223804 -0.35150078 -0.621137 0.12313271 0.6033655 0.7851299 -0.31462654 -0.157878 0.7705558 -0.18582569 0.83245856 0.024724646 -0.55365914 -0.8469151 -0.105369315 -0.7438993 0.03334858 0.22734934 0.74411184 0.05646321 0.15287912 -0.010319952 -0.4936013 0.7668587 0.057354897 -0.68092895 -0.20952849 0.5319735 -0.22472847 0.48866564 -0.06884888 -0.25142527 0.028103141 -0.13901037 0.283357 0.62377703 -0.017376449 0.14922361 0.6679405 0.46363544 -0.44671503 -0.37053058 -0.6195625 0.51855165 -0.31772676 0.6364062 0.16101414 -0.0008988822 0.17090505 0.16626424 -0.6905817 -0.71042836 -0.09216624 0.4234679 0.25558147 0.072116226 0.13292964 0.015766364 -0.29153764 -0.65454865 0.4181301 0.7741141 -0.3173879 0.3405581 0.8793429 0.33992705 -0.13065265 0.0137898885 0.6414481 0.2538629 0.2038351 -0.727776 0.22478306 -0.0011852831
2367 -0.25365353 0.38488168 -0.44298136 -0.60840684 0.37314644 -0.46444535 0.0069781216 0.93009174 -0.018968804 -0.83566207 -1.0618948 0.033073705 0.1698529 0.34979463 -0.12828794 0.14161678 -0.448486 -0.18766586 -0.39398983 -1.2165039 0.11661188 0.96311903 0.45870128 -0.20292163 -0.1669155 -0.11209262 -0.3015918 0.4621705 -0.35306945 0.03580982 0.45685488 0.52150136 -0.020961046 0.7963553 0.44536182 0.4547341 0.66200846 -0.1201327 -0.74391645 -0.7617091 1.0500396 0.2175034 0.039952572 0.2147501 0.7995333 -0.54245657 -0.37778303 -0.95536214 -0.35393476 0.083262436 -0.0910758 -0.29187647 0.071688466 0.44854578 -0.73310894 -0.2507419 0.705819 -0.16869712 -0.07407356 -0.0797353 0.36849186 0.3805817 -0.29990306 -0.21622093 -0.5522377 -0.13036786 -0.59408206 -0.27194345 -0.5925432 -0.42920083 -0.8342466 0.67368895 0.8001436 -0.57247794 0.22095993 0.015576301 -0.468951 -0.60638344 -0.2800083 0.007903539 0.3504841 -0.010133386 0.08881653 0.1713847 0.12594897 0.07384655 0.016666427 0.46111003 0.33546385 0.39239526 -0.2083778 -0.3473567 0.18251304 0.41058794 0.35890284 0.8460277 0.035000656 0.20733406 0.25603962 0.2263344
1740 0.11821724 0.2685966 -0.15235192 0.27197644 0.43089223 -0.4731557 0.25212783 0.27283955 -0.6391442 -0.42998746 -0.08024079 -0.20906952 -0.1109517 0.249015 0.60198855 -0.25907344 -0.17686757 -0.18443723 -0.021342615 -0.72418237 0.43206835 -0.048696354 0.48406085 0.068168625 0.38687518 -0.045775283 -0.4363897 -0.00057554164 -0.4585414 0.6134803 0.09183831 -0.59888184 0.20223208 -0.6842292 -0.05972087 -0.5313254 -0.5147793 -0.05504856 0.16070661 -0.3291746 0.00038001235 -0.58422256 -0.35729557 0.43369955 0.8581991 -0.24462318 -0.2804484 -0.16559437 0.24592128 -0.060866285 -0.108464785 0.06294312 -0.3685903 0.05856575 -0.25944227 0.09439997 0.10596475 -0.74301654 0.12851265 -0.29923332 1.1425302 -0.021217318 -0.7184426 -0.43049332 -0.23470266 -0.36034915 0.12284203 0.22263852 -0.36039668 0.50603765 -0.20828417 0.41902167 0.23877911 -0.49381176 0.24198474 0.18154924 0.09130933 -0.5535907 -0.8713988 -0.39524367 0.10387467 -0.031700227 -0.12713064 1.0562487 -0.32130858 -0.079409055 -0.126228 0.0448855 0.6438422 0.1917008 -0.4924899 -0.24108796 -0.14936905 -0.35331 0.2468432 0.71390074 -0.66094494 -0.5204687 0.03034661 0.58520395
565 -0.35757285 0.09961901 -0.19786929 -0.03579409 0.00055672694 -0.53999925 0.2892678 0.94811255 -1.3750546 -0.42514977 -0.038028028 -0.40479177 0.36718667 0.46281162 0.79396385 0.49407905 -0.41622087 -0.35679275 -0.3134398 -0.81797695 0.7772554 0.08162244 -0.006143154 0.098041356 0.15618914 0.12985277 -0.588305 -0.43406686 -1.0455976 0.11311729 0.48337567 -0.043793734 -0.0446998 -0.5405386 0.07945867 0.27703476 -0.57897615 -0.4004372 -0.5568165 -0.63080114 -0.5742849 -0.10101284 -0.075920716 0.1797741 0.11318939 0.117971055 0.33030164 0.26407912 0.26403707 0.79788095 0.017684909 0.29296625 -0.54746515 -0.15907672 0.2851101 0.15574321 0.59130687 -0.14621067 -0.18666682 -0.08106113 0.6330568 -0.33244017 -0.6256669 -0.36675295 -0.4896931 -0.027604178 -0.4499085 0.5169471 -0.03416349 -0.17350948 -0.18894318 -0.0023946492 0.393189 -0.28263706 0.4880252 0.263273 -0.111918956 -0.5270917 -0.8256335 -0.34575942 -0.27552783 -0.34325743 -0.03775232 0.7952944 -0.2584733 0.19293112 0.24103491 -0.3974351 0.21003899 0.22658396 0.05302837 -0.44321236 -0.065761045 0.30868813 0.009352206 1.1771772 0.012899783 -0.8638513 0.17360434 0.18788864
525 -0.8618091 0.0305758 0.015193373 0.4159847 0.2653808 -0.60618955 0.15100606 0.41593382 0.3433599 -0.21521138 -0.19954075 -0.48661348 0.46669188 0.5452169 0.44978473 -0.54574734 -0.70061624 -0.56672466 -0.0091171935 0.0071225823 0.28082037 -0.047380578 -0.4184727 -0.33181316 0.29969627 0.5989894 -0.75774646 0.18654771 -0.1646926 -0.81345433 0.34470695 -0.5315909 -0.41597798 -0.077786945 0.12392862 0.5585779 0.6557363 0.36591864 -0.38420224 -0.6247007 -0.46167964 -0.13235226 -0.08539197 -0.047910612 0.024036888 -0.8250779 -0.87517565 -0.15377186 -0.32974514 0.4658234 0.1480691 -0.2690245 -0.64686906 0.31957355 -0.24997272 -0.17275701 -0.118475065 -0.5263795 -0.7307716 -0.1873522 -0.38193733 0.16592352 -0.11688633 -0.004250136 -0.6072382 -0.11105269 -0.37168804 0.12520151 -0.40396187 0.8772432 0.2896719 0.4478784 0.28322503 -0.30632016 0.45877087 -0.056518216 -0.5722015 -0.5952341 -0.44808605 0.19116661 -0.5903848 0.6361065 -0.33557865 0.03704688 -0.45040712 0.21434093 0.67305315 0.89544857 0.47899175 0.482973 0.7939035 0.24318288 0.19401814 -0.5160419 0.32289812 0.56163013 0.10292861 -0.14327082 -0.31321988 -0.28530842
55 -0.6082639 -0.10468697 -0.24970677 -0.1149486 0.13833304 -0.33983403 0.18567683 0.4291332 -0.32408488 -0.7645578 -0.19458231 -0.4471724 0.16377203 0.11659692 0.54692966 -0.56271535 -0.5638773 -0.63669556 -0.078697294 -0.48758438 -0.27820596 0.5706727 -0.29015204 -0.5423572 -0.48455617 -0.39470905 -0.62856764 -0.21230155 -0.46096277 -0.8827117 0.53965944 0.23425528 -0.1768019 0.06913005 -0.073737964 0.08035261 -0.11390313 0.2716653 0.30556756 -1.1025681 0.2516994 0.60213304 -0.31808048 -0.018456113 0.042445496 -0.20244959 -0.48034117 0.2341183 -0.64883375 0.40193602 -0.013370853 -0.29400662 -0.352309 0.5593346 -0.12070702 0.5620553 -0.03293402 0.43471068 -0.9976938 -0.10229683 0.4800418 0.41784376 0.60740113 -0.48411998 -0.93475485 -0.2748498 0.101104155 0.07378631 -0.4117605 0.18468346 0.6682435 0.3681095 0.35973915 -0.16984093 -0.30166918 0.0552026 0.6508335 -0.24298994 -0.25661495 0.0009912343 -0.058182918 -0.38151795 0.12797846 0.37685984 -0.0135666635 -0.9379188 -0.00074137736 1.0296788 0.21106565 0.59367603 0.34173068 0.65231127 0.08813552 -0.12185285 0.53439164 0.15336314 0.03659756 -0.14872277 -0.040346865 0.12098742
645 0.65708476 0.030529546 -0.81981826 0.565089 -0.040019177 -0.49376005 0.9476357 0.4277791 -0.8811266 0.055288054 0.23842171 -0.39624783 -0.6766796 0.802037 -0.056241665 -0.35730022 0.38596216 -0.62381667 -0.21623921 -0.5295233 -0.064631194 0.6817997 -0.07022348 -0.2323312 0.2546117 -0.117888324 -0.31446943 -0.4870142 -0.30919728 -0.039884698 0.9277658 -0.009881395 0.022389503 0.093719214 -0.052603733 0.48504412 0.030458543 -0.5604069 -0.2243085 -0.70303595 0.4488414 -0.5517779 0.080419526 0.6489423 -0.08311815 -0.57532966 -0.5761543 0.21108277 0.60378313 0.116532005 -0.24989139 0.13497752 -1.049703 0.6920499 0.047562044 0.42891583 0.8424012 0.1741544 -1.0090591 -0.36490512 -0.2776124 0.5499209 -0.53010345 -0.1821207 -0.16808774 0.061544053 0.048856016 0.22122099 -0.1086376 -0.15602784 -0.02983773 0.15136163 0.36487898 -0.28236324 0.5335764 0.14145312 0.18554975 -0.1470843 -0.03166832 0.054338135 -0.47773716 0.49078935 0.14130497 0.8773042 0.2087193 0.18384083 -1.0139493 -0.4518026 0.554403 0.36921942 0.58655137 0.35421464 -0.31687734 -0.031253528 0.5044519 0.19601718 -0.110531986 -0.11315703 -0.019795094 0.17174351
1505 -0.95769536 -0.16227597 -0.13492894 -0.25547954 0.3562023 0.020946842 0.369508 0.22652246 -0.61999935 0.24615636 -0.654878 -0.87557405 0.14409523 0.7113074 0.9835637 0.1566143 -0.24463715 -0.30861133 -0.13576524 -0.7237658 0.024595965 0.2519381 0.37092504 -0.060937934 -0.07653164 0.52083635 0.33667755 -0.05150591 -0.43288136 0.30851552 -0.14950907 0.038366806 -0.4574448 -0.94129735 -0.3139321 -0.26596025 0.021832163 -0.0049569025 -0.12726149 -0.051651876 -0.22077176 -0.60410905 0.2434598 0.7290456 0.69003856 -0.59349436 -0.3367435 0.19692533 0.24876939 -0.19345772 0.35419905 -0.3503951 0.2453836 -0.051613893 -0.3882372 -0.09136032 -0.22150032 -0.4961958 0.19656712 0.06497897 0.56611955 0.6346049 -0.06761973 -0.09112882 0.4594953 0.14376868 0.0864595 0.38434052 -1.062294 0.11223503 -0.076510906 0.3108367 0.12441093 -0.50148827 0.40255007 0.6929041 -0.20350344 -0.58692986 -0.82955796 -0.37038055 0.38531208 0.09298596 -0.32279116 0.47160822 -0.75310135 0.35383245 0.07302304 0.12798768 1.0256659 0.64382255 -0.012802236 0.68177426 -0.012079411 -0.13561708 -0.4121588 0.110480584 0.36340714 -0.62749076 0.10131661 0.43784636
1966 -0.041483797 0.17947844 -0.24302539 -0.54163814 0.2048933 -0.028583257 0.7561824 0.12334642 0.19793454 -0.38462743 -0.35426855 -0.37373444 -0.41171798 0.3381454 -0.16281083 0.092799656 0.026874918 -0.2993716 -0.90223587 -0.58270663 -0.41138294 0.29380253 -0.17819503 -0.30857345 0.038542613 -0.48967808 -0.16238005 0.080021895 -0.58771884 0.0779068 -0.248231 0.46575215 -0.9397521 -0.44165108 -0.09898883 -0.14513576 0.031192647 -0.04916783 0.56326306 -1.5986022 -0.28087366 -0.12204447 -0.237344 0.33110616 0.3058085 -0.20278056 -0.059151225 0.5458526 -0.32279718 0.36961323 0.34688613 0.17399806 -0.3541134 -0.06586034 -0.7691694 -0.6602607 0.47952774 0.044661622 -0.220523 0.72350496 0.1963023 -0.37919477 -0.2774038 0.29923216 0.015902277 0.14526257 -0.091923624 0.20075902 -0.46335784 0.12131474 0.2743718 0.6146315 0.847409 0.27101663 0.79687953 -0.34798622 -0.72566533 -0.8213819 -0.26428437 -0.42812183 0.18523175 0.3506054 0.15704559 0.19262393 0.33803856 -0.17263258 0.06809111 0.9678359 0.15427245 0.6580912 0.9503906 0.61071104 0.18762234 -0.68924206 0.25071588 0.17255317 0.41714826 -0.42974904 0.6829407 -0.29732534
154 -0.13325565 0.30912626 0.3296214 0.7454546 0.20627841 -0.060974903 0.10040828 0.76232636 -0.7545515 0.4314129 -0.23206785 -0.08719175 -0.8348713 0.68382055 0.24693613 -0.2264942 -0.48606998 -0.6493767 0.24714431 -0.8887091 0.07322966 0.8668017 0.13513461 -0.33550084 0.5046452 0.028287241 -0.2103659 -0.107197255 -0.6669562 0.08548545 -0.42908183 -0.58211815 0.93544793 -0.037495192 0.10041214 0.17118335 0.24776979 -0.7286373 -0.04261814 -0.58706176 0.18479778 -0.10865849 -0.06608267 0.91113627 0.34561652 0.03910051 -0.7900537 0.49289387 0.22811341 -0.1544659 0.3191422 0.26975974 0.016663618 -0.23769742 0.18951184 -0.33095145 0.38118184 -0.12242778 0.40845904 -0.012494488 0.58702266 0.33059537 -0.72229093 -0.5580389 -0.45017397 -0.09244695 -0.3260262 0.29289648 -0.35400152 0.4207589 0.25799662 0.76249367 0.3139011 -0.4034853 0.6339844 0.49941483 0.38858923 -0.35640296 -0.48045692 -0.4088395 -0.0021093923 0.76258373 -0.24468249 -0.0073151337 -0.12547605 0.079147 -0.0468141 0.37536773 0.25790384 0.2746746 0.395613 -0.14584987 -0.46041974 0.18066256 1.1311576 0.6944221 -0.12633595 -0.66405004 -0.104246214 -0.41682786
441 -0.11308158 0.17578037 -0.3554355 0.04630037 0.16670479 0.04246793 0.1716533 0.9576959 0.0983342 0.41381958 -0.23370105 -0.73657084 -0.28047138 0.5125751 0.82463354 -0.401945 -0.24532972 -0.77176005 0.37904853 -0.33406252 0.0265701 0.2833149 0.008601917 -0.29014483 -0.5430619 0.14924327 0.7233545 -0.2505299 -0.63774407 0.5724149 0.5704022 -0.89926475 0.51845324 -0.14979501 -0.434709 1.0308169 0.40507314 -0.35977185 -0.42812043 -0.513655 0.13926655 -0.30661017 -0.6996987 0.23650955 0.5182267 0.44195667 0.11719423 0.27847135 0.4054663 0.10992054 -0.055149604 -0.41009775 0.13949713 0.38690582 -1.1162832 -0.67333096 -0.0937089 0.3804059 -0.32704645 0.25576684 0.19941887 0.9095648 -0.3278494 0.45948964 -0.45070684 -0.17938514 -0.39573494 0.28955016 -0.29454908 0.60407853 0.10470797 -0.31756312 0.15060438 -0.12990846 0.28529066 0.70720506 -0.5893306 -0.37179214 -0.1910718 -0.097518615 0.025597574 0.96053076 -0.4044455 0.395079 0.22028108 -0.37808663 0.024800185 -0.061829146 0.20808494 0.14082219 0.7974845 0.65966 0.75888944 0.13186146 0.03588627 0.19762076 0.22993869 -0.7985285 -0.20383236 -0.37970614
73 -0.48630863 0.6200864 -0.40065718 0.27384505 0.32712498 -0.070983976 0.38733155 0.7614105 -0.8329274 -0.19836587 -0.013920959 0.25509116 -0.5612817 0.40820605 -0.3605165 0.22167398 0.49176756 -0.18957247 -0.07607217 -0.9464805 0.62798876 -0.0736062 0.40779445 -0.1381716 0.6025636 -0.19820318 -0.15174092 -0.27165222 -0.8905421 -0.33751446 -0.062383067 0.054942813 -0.1030021 -0.517351 0.11213402 -0.44548416 -0.1075836 -0.3775183 0.079274006 -0.7295591 -0.041614134 -0.23914844 0.22949581 0.28340423 0.91694945 0.00062333036 -0.6960647 0.68284416 0.2602841 0.35706672 -0.01074877 0.32005802 -0.4009914 0.09815556 0.4504741 0.033185206 0.36492452 -0.1868157 0.23225237 -0.105079025 0.7549129 -0.18847147 -0.27382368 -0.16036704 -1.0838563 0.202964 -0.05968503 -0.046801187 -0.3364259 0.16115765 0.11706778 0.74228734 0.041276444 -0.18552081 0.28087822 0.4748854 -0.079589106 -0.6827407 -0.5936754 -0.52762413 -0.5253284 0.058969438 -0.1863917 0.44644862 0.065270714 0.57135004 -0.22944753 -0.1184891 0.5538482 0.119799376 -0.18896493 -0.41612157 0.2314856 0.339524 0.96647555 0.51500446 -0.21492925 -0.51104206 0.46788788 0.13620497
1954 0.3784638 0.8164604 -0.35111725 0.40687323 -0.027394917 -0.9116241 0.39301062 0.97068393 -0.94276077 -0.030479643 0.014664474 -0.28910336 -0.55905414 -0.046505228 0.8331101 -0.6795562 -0.086277194 -0.4414128 -0.2676867 -0.56316715 0.08595508 -0.096969716 0.06818915 -0.29190916 -0.26688948 -0.6597417 -0.42494184 0.24116272 -0.049072657 0.2946908 0.35472658 -0.3976595 -0.08865971 -0.090683036 -0.052642882 0.70839924 -0.12669758 -0.83572334 -0.77118146 -1.2199342 0.30432558 -0.30953106 -0.3967629 0.051193904 -0.31290945 -0.37430638 -0.03399621 0.26150444 0.50086945 0.21852726 -0.38980162 -0.3368439 -0.39383858 0.43193305 -0.86086 0.15912381 0.09338851 0.46425086 -0.26501352 0.05173947 -0.03425215 0.81372106 -0.30845124 -0.04668593 -0.070754915 0.4541586 0.19443578 -0.09419515 -0.27415895 -0.29424405 -0.86456174 0.6203463 0.4826013 -0.18887913 0.2793788 1.0234867 -0.21050122 0.021754805 -0.032570325 -0.26552185 -0.22280589 0.6479207 -0.38003978 0.69061035 0.33536336 -0.20359191 -0.36026877 -0.44335473 0.75447726 0.086604275 0.7148214 0.28907984 -0.0889592 -0.21829587 0.82861304 -0.27065772 0.39436436 -0.67478615 -0.15804332 0.01793714
2681 -0.16239184 -0.5749301 -0.19290414 -0.6948203 0.35120964 -0.2662197 -0.081032 1.4130547 0.4620803 -0.19069894 -0.3541817 -0.5422126 -0.8162414 -0.0578559 -0.2600299 -0.3160894 -0.30370066 -1.132467 -0.091044486 -0.011770785 -0.16532345 0.64640903 0.23710778 0.45270595 -0.19383745 0.31570908 -0.75582397 -0.2474305 -0.48333558 0.25612107 0.1392749 -0.037925076 0.09452328 -0.43975702 -0.38520113 0.6977016 -0.009968873 0.097976156 -0.4356689 -1.0158819 0.19633 -0.24559423 -0.5710541 0.34193844 0.8031537 -1.0537968 -0.060683798 -0.6240041 0.7433244 0.77004266 -0.6637123 0.05338133 -1.1155437 0.41929346 -0.052322086 -0.237114 0.80809844 -0.75773376 0.20943822 -0.6788734 -0.16493902 -0.11194457 -0.77702785 -0.33801576 -1.0004056 -0.08925868 -0.77534026 -0.30767894 -0.13215418 0.3094091 -0.66284025 0.54933715 0.362272 0.25134063 0.17162663 0.69334453 -0.17191583 -1.0544791 -0.5112351 -0.5363921 0.013677428 -0.02338719 -0.30229422 -0.22866689 -0.82309175 -0.92246234 -0.15863587 0.96993285 0.12650484 0.67825925 -0.16659789 0.08119485 0.20514464 -0.06633472 0.9373251 0.42290884 0.33089787 0.3453428 -0.32846403 0.002134655
2359 -0.45696893 0.8267965 0.20437045 -0.29555497 0.67138255 -0.4205219 0.17327051 0.76095045 -0.7767695 -0.439557 0.3017597 0.08437549 -0.16622962 0.5678762 0.24433659 -0.1573883 0.36763498 -0.09479583 0.10099123 -0.9556322 0.61858165 -0.16360524 0.7539343 -0.20511909 0.35508016 0.053766325 -0.55043155 0.43975532 -0.35195833 -0.4718291 0.20212026 0.06424906 -0.27135146 -0.03657337 0.28620964 -0.06463125 -0.15505484 -0.67687076 -0.008613784 -0.99032813 0.108802676 -0.04970932 0.18134177 0.060734008 0.36697203 -0.20308957 0.042893097 0.42175514 0.3330763 0.7304264 -0.121577874 0.14897966 -0.7462748 -0.16426997 0.36523917 0.100802325 0.49726984 -0.058177516 -0.21112812 -0.35220784 0.61635935 -0.41721043 -0.35474163 -0.28005156 -0.533829 0.13399242 -0.17625274 -0.11883399 -0.0340292 0.4745763 -0.02377762 0.407263 0.48196277 0.48052302 0.13281505 0.35545477 0.025899999 -0.78189653 -0.5358406 -0.11224522 -0.47575703 0.053587895 -0.269975 0.5769472 0.27991584 0.3919269 -0.08096885 -0.1866321 0.63276124 0.14949693 -0.53635985 -0.8100221 0.18603888 0.14297627 0.8930569 0.27686316 -0.13789912 -0.761648 -0.011341204 0.552199
279 -0.53045774 0.42064732 -0.07487406 0.1978384 0.79810596 -0.36096963 0.41269284 1.1304586 0.06143563 0.38753352 -0.44311267 -0.42637756 -0.31086215 0.033959188 0.09012333 0.17102611 -0.4517502 0.22293995 -0.16690075 -1.0628062 -0.14450608 0.022696266 0.26644573 -0.59194666 -0.8670451 -0.18349105 -0.26023462 0.40379357 0.0066058943 0.12678604 0.07887712 -0.793918 -0.27554664 -0.42488295 0.42260945 0.23814695 0.08217247 0.27736297 0.33414206 -1.2110889 0.30823648 -1.0324434 -0.36032906 -0.019034706 0.10053396 -0.2680753 -0.55444497 0.33389577 -0.1529751 0.12099888 -0.7799779 -0.4296487 -0.11848406 -0.43370783 -0.22882186 0.086860135 0.47736874 -0.064619906 -0.118882306 0.043458108 -0.29851404 0.8441929 -0.39977908 0.2087535 -0.71149933 -0.04152919 -0.7439167 -0.5023893 -0.3589413 0.055318777 0.1693476 -0.5308862 0.059249595 -0.36414453 0.46793377 -0.45687193 0.2834098 0.5268423 -0.51779705 0.43669036 0.37760875 0.10825426 -0.4861457 1.3139474 -0.06524347 -0.24655935 -0.40217268 0.5445296 0.35337555 0.11499071 -0.42952257 -0.48399243 0.40528926 0.16946 0.9049127 -0.3706755 0.45744413 0.19889338 0.04939565 -0.07652144
577 -1.1370516 0.80419594 0.11639375 0.115798324 -0.2976154 -0.5800031 0.9423611 1.0722104 0.025487447 0.13587345 -0.068794966 0.0684295 -0.275878 -0.34929788 -0.14020887 -0.5417527 -0.3598054 -0.3096694 -0.52991194 -0.5142105 0.47522122 0.090488285 0.3303414 0.21750832 -0.1271096 -0.3115591 -0.23282191 -0.42114043 -0.3177199 0.40923765 0.7468318 0.30003634 -0.68314344 -0.14866827 0.46047497 -0.34003195 0.7378899 0.07263751 -0.41776037 -0.89915967 0.44966882 -0.808633 0.21986826 0.24832799 -0.031790297 -0.18011521 0.17320432 -0.4029235 -0.07377979 0.859824 0.31446132 -0.5879905 -0.3057078 0.40451276 -0.119124405 0.5765339 0.08457996 -0.25301483 -0.21001245 -0.23774101 0.7815934 0.19142085 0.20250605 0.62353295 0.0939294 0.2896803 0.20743798 -0.7080798 -0.7727662 1.0927198 -0.22592133 0.359701 0.56106764 -0.5375421 0.3751306 0.34946382 -0.72156256 -0.35349625 0.00058797136 0.2029779 0.27437755 0.47198474 -0.18183218 0.19277349 -0.47651544 -0.045747705 -0.23572779 0.92500293 -0.4381529 -0.014963991 0.713768 -0.13204576 -0.08106635 0.37698975 0.46170324 -0.2686171 0.073960915 -0.6270092 0.1524629 0.42490694
94 -0.27211523 0.13782892 0.011660558 -0.48516402 0.64546555 -0.34225786 0.54559094 0.10930922 0.46934897 -0.46934482 -0.06983383 -0.057572857 -0.2757784 -0.12119706 -0.4383389 0.2654124 -0.22836225 -0.09137355 -0.35965174 -0.58492357 -0.7031872 0.033164416 -0.22047113 -0.18826357 -0.19869307 -0.22540078 -0.25229648 0.046389487 -0.48841614 0.18433468 -0.5636695 0.35022265 -0.44598266 -0.8267167 0.4012625 0.0013738277 -0.22091176 -0.21162044 0.42611626 -1.3466843 0.33693644 -0.1735299 -0.25030994 -0.014799049 0.14079821 -0.34171012 0.32312638 0.0233744 0.08128715 0.31132105 0.5170672 -0.22347912 0.06670634 0.16405506 -0.46262327 -0.25598526 0.030247709 -0.057299223 0.19789682 0.90994054 -0.27402553 0.49719134 -0.08922765 0.9617415 0.3364123 0.6681042 0.08561704 0.29117465 -0.6019415 0.23480622 0.26426852 0.5017498 0.7707469 -0.18308829 0.77864605 -0.27665251 -0.5539524 -0.80703926 -0.51677823 -0.1370208 -0.18652472 0.29779565 -0.10046936 0.99215186 -0.035607286 -0.030166222 0.08819463 1.133278 0.18667683 0.6065538 0.6339648 0.6053652 0.3695218 -0.46094692 0.24649987 0.02948806 0.34798142 -0.36163843 0.69461226 -0.109518036
218 -0.15212971 0.1640173 0.3684668 0.09013368 -0.36900613 0.42555085 -0.11620314 0.32991314 -0.028725984 -0.12766862 -0.9209637 -0.48267877 -0.521899 -0.59132355 -0.40575194 -0.16646092 -0.048861343 -0.7938772 0.047771007 -0.35699496 -0.3942017 0.02184104 0.6015714 0.3525773 -0.8040845 -0.33805603 -0.15704602 -0.28832054 -0.30165863 0.09657083 -0.07825959 -0.22237156 -0.5695941 -0.09285568 -0.35331705 -0.10111293 -0.03977085 -1.3641652 -0.012434355 -0.75800085 0.48623046 -0.5294977 -0.7541281 0.57031065 0.25408104 -0.404072 0.09343095 -0.45784307 -0.51505363 -0.1929594 0.052563746 -0.35290608 0.0640618 -0.48774895 -1.0217514 0.7270774 0.001801807 -0.4952216 0.55876005 0.17851907 0.4716114 0.5331337 -0.5384324 0.29301488 0.057244394 0.39883575 -0.102114 0.10844904 -0.80120295 0.044609245 0.030748934 0.5364592 0.7906689 -0.03419709 0.51604575 0.73929226 -0.5629211 0.17532352 -1.2219344 0.29458085 -0.61671 -0.3293493 -0.21025094 0.71845984 -0.08689183 -0.1391193 0.59493935 0.27256754 -0.23270221 0.21934609 -0.028559176 -0.04891816 0.36795887 -0.17443961 -0.0029045271 0.14039706 0.29450175 -0.42478538 0.20670797 0.28614873
2025 -0.25386155 0.04412138 -0.06270057 -0.30931142 0.5621308 -0.6721099 -0.13253568 0.48828104 -0.34668425 0.12310558 -0.5589079 -0.448849 0.18593481 -0.19259667 0.26697546 -0.49939004 -0.34183985 -0.32581732 0.49505997 -0.5806981 -0.053159986 0.1880924 0.54594755 -0.19999455 -0.9379909 0.19287531 0.5710792 -0.3629555 -0.745106 0.07435276 -0.3956943 -0.7843083 -0.0005861256 0.37514612 -0.14767013 0.28767857 0.6313652 0.028087111 -0.10620814 -0.57074165 0.058106538 -0.67065305 -0.12355075 -1.0019305 0.42600915 -0.35366794 -0.26048097 0.29831016 -0.22705609 0.5457665 -0.34185907 -0.62870806 0.24207848 0.098546036 -1.0476085 0.42829856 0.3316858 0.05858283 -0.07894695 0.060850095 0.36595517 0.9775224 -0.27969515 0.7628231 -0.4565497 -0.123004556 0.15226203 0.12562358 -0.110566355 0.2700886 1.0405666 0.26382688 0.99798787 -0.20572911 0.049301233 0.25041226 0.17617244 -0.060681757 -0.23681222 -0.34173208 -0.20887528 0.16037282 -0.5767677 0.3526258 -0.24732473 -0.902308 0.18838638 0.24165665 -0.42197248 -0.006020084 0.29914412 0.22598484 1.037318 0.40353683 0.5331926 0.5937419 -0.21603878 0.008782888 -0.5973473 0.4280996
748 -0.47949496 0.3000256 -0.30817774 0.0626125 -0.12352607 -0.66892046 0.91638625 0.33671242 -0.0052083055 0.09562118 -0.08974893 0.070918985 -0.008537646 0.5323705 0.09840837 -0.19236559 -0.06479965 -0.3808835 0.43835694 -1.2734165 0.2070205 0.62213075 -0.007942136 0.10441445 0.31997082 -0.08992506 -0.41218033 -0.25546098 -0.4520273 0.17552885 0.01696358 -0.24066421 0.96319765 -0.1837581 -0.14751175 -0.04890965 0.13859324 -0.16031793 0.24719365 -0.50891346 -0.022153247 -0.21381526 -0.3966016 0.6267891 -0.010070367 -0.37924445 -0.29914302 0.60557044 0.21943125 0.25635996 -0.625758 0.036054492 0.15799262 -0.056366507 0.015215695 0.014174709 0.67572767 0.13628238 0.65139395 0.18542433 0.29918766 0.25253442 -0.90014607 -0.2310518 -1.1171287 -0.26964086 -0.5158757 0.6674586 -0.8412967 0.39998594 0.2811626 0.06637555 0.6577096 -0.5096358 0.72060025 0.08686626 -0.20198664 0.32950488 -0.58600235 -0.26505968 0.12018638 0.14123003 0.27695686 1.0327079 0.40131894 0.5971812 0.064895816 0.00069630024 0.20506492 0.57373565 0.23415223 0.32017356 -0.09573318 0.4775363 0.65952027 0.86171883 -0.93249553 0.25651556 0.16672099 -0.14527419
734 -0.5354243 -0.14109543 0.09902331 -0.13596304 0.4159178 -0.21949022 -0.027713697 0.4773822 -0.07798282 -0.451782 -0.23082218 -0.3901313 0.8197184 0.60909486 0.16373993 -0.64136386 -0.4574564 -0.48168918 0.2911625 -0.36760202 0.5904465 -0.5065035 -0.3225812 -0.25052458 0.20902021 0.43658954 -0.8259963 0.28774217 0.20561561 -0.46292827 0.049342845 -0.0016176577 -0.39198118 -0.46240976 0.51856184 0.31411764 0.9876653 0.061210647 -0.59496135 -1.2457143 -0.45037445 -0.48942807 -0.13740171 -0.1603445 0.41001365 -0.7844796 -0.80826855 0.08198491 0.0014540348 0.32391766 -0.17077027 0.0848599 -0.3520641 0.764927 -0.44490483 -0.22666416 0.010662953 -0.38779083 -0.61962485 0.18400016 -0.0674886 0.91815567 -0.64067346 0.18439981 -0.6428634 -0.33544633 -0.422714 0.5391951 -0.0033936775 0.31449226 0.3431603 0.77125585 0.4450634 -0.5591879 0.8515936 -0.3298333 -0.030689973 -0.5187172 -0.36272937 0.2894152 -0.46183714 0.5570192 0.0811745 0.17778298 -0.24064483 -0.06846312 0.145745 0.8565015 0.646359 0.40044817 0.47360668 0.30134878 -0.111451335 0.3455293 0.14209661 0.09793264 0.29240984 -0.061123755 0.29854438 0.0116255125
65 -0.896281 0.24412261 -0.19826446 -0.206123 0.5313118 -0.8642235 0.22775124 0.6428865 -0.19993792 -0.42756495 -0.5983731 -0.64244384 -0.116899736 0.17600556 0.32578382 -0.059571493 -0.9502102 -0.397653 -0.22329168 -0.3759908 0.074312836 0.6305822 -0.20073956 -0.82101065 -0.1663093 -0.053783815 -0.6380062 -0.10936691 -0.35540697 -0.35649985 0.46327963 0.17513974 -0.29239306 -0.36825177 -0.07270306 0.11972883 0.27962103 -0.04491514 0.52430135 -0.7443369 0.22940539 0.36013198 -0.03607072 -0.104219295 -0.16465011 -0.69714314 -0.4739874 0.2129383 -0.35889864 0.12704866 -0.014982766 -0.7149701 -0.080775194 0.6219831 -0.37875375 0.3165816 -0.4811256 0.06625661 -0.7562034 0.2519042 0.63640636 0.64088774 0.06466384 -0.7031918 -0.73736286 -0.008403184 -0.5731191 0.31605873 -0.42369932 0.28183958 1.0004444 0.26208264 0.47822183 -0.40535265 0.42477256 0.036091972 0.15610535 -0.42501056 -0.061172243 -0.25141564 -0.46022093 0.07599127 -0.47296894 0.47034547 -0.47920758 -0.42262274 0.49517077 0.778638 0.41356534 0.025041364 0.5091893 0.38662025 0.4456138 -0.21110317 0.12575006 0.28219053 -0.053838458 0.32707646 -0.3664314 -0.10796624
2464 -0.05719875 0.048333786 -0.08953291 -0.705358 0.1722169 -0.8788721 0.3924538 0.5457104 0.018401295 0.38304454 -0.56879085 -0.77979517 0.0011924709 0.70580703 0.5132174 -0.5726371 0.6376951 -0.14916399 -0.74232185 -1.0209053 0.1351407 0.07721141 0.6503209 0.27764255 0.1557808 0.088619374 0.2489263 0.25733903 -0.54474276 0.1368356 0.71188766 -0.04893996 -0.7025929 -0.5799192 0.13452338 0.05493873 0.22296366 -0.5262241 0.007343712 -1.0842046 -0.21348229 -0.7341792 -0.20258689 -0.1996962 0.52801037 -0.48354527 -0.50470525 0.0028661352 -0.01346783 0.77567834 -0.32115924 0.12549901 -0.6925453 0.23704407 -0.29561248 -0.31852657 0.5729474 -0.48321953 0.18374248 1.0311325 0.2592881 -0.001087233 -0.627384 0.20373076 -0.643636 0.5888453 -0.63142145 -0.42455766 0.26784614 0.7810692 0.25359818 -0.10162424 0.82942575 -1.2320687 -0.14511809 0.2858013 -0.022829583 -0.28241545 0.0044974065 -0.371238 -0.30203137 0.008440525 0.57250136 -0.33446637 0.018083364 -0.5335675 -0.89631724 0.42868608 1.0132526 0.16657592 0.24105129 0.098179 -0.13360052 0.08352709 0.13979268 0.40726733 0.42695105 0.03238062 -0.10884359 -0.18087335
1955 0.31876168 0.67171216 -0.2851764 0.378469 -0.09551132 -1.2163236 0.5893086 1.0833914 -0.9539361 0.25240496 -0.2941206 -0.081581354 -0.21520944 -0.15086155 0.6006544 -0.6225963 -0.31188598 -0.11212276 -0.06598334 -0.65896183 0.39242026 -0.23853579 -0.22451419 -0.36491248 -0.16020149 -0.30748186 -0.47876245 0.042701997 -0.31164137 0.39096135 0.31475398 -0.395275 -0.056543466 -0.42513257 -0.1028222 0.7393759 -0.04321155 -0.92917544 -0.80261344 -1.280272 0.19136083 -0.48657212 -0.3131971 -0.12767826 -0.100716785 -0.44044578 -0.21828943 0.25235748 0.2125783 0.0108479755 -0.61160684 -0.0404788 -0.2805152 0.45255595 -0.6401694 0.20910314 -0.2937208 0.7224892 0.050758112 0.0919344 0.4381374 0.91187423 -0.16205537 0.18706837 -0.22574973 0.75774235 0.22396888 -0.52296215 -0.34852538 -0.23039752 -1.0486896 0.6837364 0.5373376 -0.49081674 0.24492756 0.84103006 0.19924887 -0.41861525 -0.21056318 -0.29965165 -0.04055766 0.23097044 -0.15090722 0.7523597 0.20625882 -0.3647727 0.17227855 -0.31380478 0.4423624 -0.26703274 0.74625885 0.78614223 0.1667851 0.21236427 0.77526444 -0.110574655 0.8791356 -0.72815347 0.059077617 -0.10660927
1171 -0.44806263 1.0709639 0.35971546 -0.21269417 0.55112416 -0.6375647 -0.34684584 0.7137032 -0.6396795 -0.6375589 -0.12646547 -0.13289328 0.20789254 0.36312997 0.42947558 0.08738742 -0.08441579 0.049451772 0.19988334 -0.6341424 0.07368036 -0.1501382 0.3316779 -0.61430067 0.19082738 -0.13028911 -0.6759837 0.52737045 -0.035712738 0.14439951 0.41746974 -0.06024381 -0.1389694 0.24831918 0.21865112 0.19883226 0.1952889 -0.5468761 -0.05698995 -0.8884488 0.05985987 0.20028128 0.040844027 0.15591894 -0.49464494 -0.21161442 0.6730544 0.3144619 0.26532418 0.58978003 -0.18338627 -0.35350248 -0.53797746 0.021766951 0.030313322 0.5415502 0.28598952 -0.24716626 -0.12804897 -0.16498387 0.43023732 0.21404602 -0.22287017 -0.03426899 -0.33000198 0.21012689 -0.254125 -0.2376328 -0.33499002 0.23483059 -0.062274292 -0.17291287 0.24891773 0.9529232 0.10022986 0.42768332 -0.27256307 -0.3493444 -0.13866232 0.21828282 -0.46928877 0.16106528 -0.2823962 1.3324009 0.15639995 0.27625766 0.622759 -0.17361449 0.4679653 0.83379495 -0.29331875 -0.4029826 0.2692711 0.025451798 0.8573465 0.08517892 -0.26303712 -0.6740056 -0.20058025 0.3687707
1154 0.062199637 -0.19340011 0.16915575 -0.12863675 -0.07604621 0.23359668 0.21994637 0.5966578 -0.7415475 -0.16853248 -0.42909294 -0.8870016 -0.08736567 0.9767966 -0.024166703 0.35591733 -0.15525024 -0.74494785 -0.31792608 -0.7835168 0.64626086 0.60760665 0.027793422 0.45649433 -0.0041831885 -0.034842685 0.0071187816 -0.036892388 -0.64062834 0.6787505 0.64776486 0.30153793 0.101936996 -0.518393 0.11717761 0.24105786 0.30619976 -0.38425785 0.37917703 -0.6420984 -0.59028494 -0.3928574 -0.40535986 0.75593424 0.51230323 -0.0135683315 -0.26196268 0.2111216 0.23780109 -0.095601335 0.18730572 0.20222852 -0.39087966 0.0677616 0.060920645 0.502565 0.22311205 -0.31688842 -0.2292638 -0.005725941 0.25073078 -0.1786558 -1.2928524 -0.23289575 -0.45937142 -0.08445769 -0.5460127 0.14986318 -0.26160926 0.38683528 0.088279046 0.75673115 0.42835402 -0.7283185 0.4732778 0.15480408 -0.068966396 0.23352624 -0.81486535 -0.2839092 -0.11862471 -0.21900335 0.6100836 0.37622145 0.42901808 0.7249267 0.3907299 0.44939545 -0.23165973 0.27979353 0.25443357 -0.18790364 -0.11576595 -0.13901871 0.7198967 0.8370139 -0.3514525 -0.06569832 -0.27449352 0.59139377
